1098 100
the 0.544617 0.483295 -0.425290 0.348335 -0.161359 -0.646796 0.301655 -0.426969 0.651256 0.353214 -0.138274 -0.225967 1.112883 0.240766 0.244974 0.675811 -0.523664 0.061473 -0.065069 -1.004535 -0.217919 0.364603 0.123930 0.406821 0.318442 0.373667 -0.456070 0.271881 0.397177 0.074341 0.735223 0.033098 -0.286144 0.116168 -0.128364 0.350363 -0.084183 1.154313 -0.561584 0.419770 1.007433 -0.183586 -0.408378 -0.884827 0.069192 0.535505 -0.721400 -0.727010 -0.148052 0.395338 -0.071222 -0.285674 1.572675 -0.099767 0.791941 0.618497 0.067494 -0.622255 -0.057329 -0.261377 0.297704 -0.311865 -0.446561 0.046955 0.042779 0.254803 -0.076174 0.366644 -0.019457 -0.307090 0.227007 -0.305771 -0.346857 0.211162 0.117224 0.352273 -0.342699 -0.082028 -0.321818 0.329710 -0.154924 0.732338 -0.048526 0.064652 0.544036 -0.463611 0.200136 0.646288 0.028990 0.655164 0.096584 0.188659 -0.667355 -1.001231 0.021348 0.627095 -0.029494 -0.411458 -0.091256 -0.514567
, -0.086675 0.360585 -0.215510 0.217478 0.585206 -0.184361 0.367441 0.073890 0.686722 0.099874 0.100647 -0.335378 -0.061215 -0.176412 -0.725940 -0.033465 -0.306080 -0.425162 0.156788 -0.826930 -0.097492 0.159725 -0.097975 0.052796 -0.642597 0.256864 0.227191 0.548661 -0.712940 0.237449 0.525107 0.288100 -0.126716 0.713022 0.127986 0.268071 0.793031 -0.107393 -0.423735 -0.279480 0.106597 -0.093214 -0.160416 -0.267307 0.569689 0.851330 -0.962123 -0.287359 -0.484200 0.022033 0.734899 -0.394622 0.550205 -0.075159 -0.030408 0.186564 -0.180738 0.283475 -0.304059 -0.401954 -0.114362 -0.395079 0.245815 0.422929 -0.115545 0.106348 0.244680 -0.422352 -0.743333 0.547627 -0.935447 -0.027184 -0.773384 0.635702 0.311525 0.222089 -0.251495 -0.345724 -0.577222 0.648572 0.635186 0.598146 -0.164098 0.122335 -0.616996 0.023538 0.158498 0.515077 -0.256138 0.320410 0.379861 -0.611200 -0.515493 -0.267168 -0.136445 0.354642 0.426998 -0.329326 0.473429 -0.250464
. 0.478568 0.099276 -0.514970 1.257881 0.182757 -0.849944 0.880672 0.071209 0.957457 0.092650 -0.297920 -0.394005 0.887380 0.114084 0.440047 0.935339 -1.248676 -0.122395 1.328081 -0.730510 -0.127710 -0.228198 -0.812554 -0.051671 -0.433820 1.392862 -0.677511 0.709518 -0.181887 0.159583 1.198115 0.383536 -0.200368 0.428742 0.173959 -0.009522 0.519917 0.056526 0.175418 -0.166949 1.660964 0.064458 -0.479302 -0.558660 0.028768 0.237583 -0.770431 -0.627784 0.290319 0.786360 0.555833 0.043370 0.721496 0.431042 -0.180141 0.078669 0.279174 0.479086 -0.352918 0.045810 -0.365100 0.217893 0.391312 0.637529 -0.606725 -0.170062 0.855845 -0.466083 -1.094215 -0.001841 -0.554760 -0.434256 -0.355225 0.198686 -0.454206 0.721694 -0.245732 0.746150 -0.793926 0.493229 0.137106 -0.406158 0.279922 0.080529 -0.179638 0.736624 0.202695 -0.303198 -0.127333 -0.019101 -0.007440 -0.079734 -0.221389 0.364343 -0.109967 0.685649 -0.138749 0.077950 -0.287346 0.599509
of 0.549037 -0.122318 -1.280419 -0.012476 -0.495236 -0.439283 0.159688 0.352831 0.194966 -0.039610 -0.388174 -0.773515 0.428512 -0.592717 0.357561 0.555781 -0.651345 0.100251 0.207606 0.110124 -0.109002 0.512862 -0.273168 0.132018 0.246584 0.728211 0.127149 -0.146839 -0.409482 -0.237253 0.235262 1.016950 0.719172 -0.267607 0.078301 -0.242116 0.063060 1.379619 0.042230 0.052381 0.092556 0.058364 0.269299 -0.895719 -0.064230 0.136977 -0.312311 -0.446315 -1.112985 -0.382189 0.957185 0.574444 -0.143455 -0.473676 -0.583597 -0.004587 -1.126612 -0.535078 -0.487777 -0.086377 0.184894 -0.675667 -0.217919 -0.138538 -0.275803 -0.894937 0.299140 -0.349177 -0.278735 -0.060701 0.193800 -0.042614 -0.349305 0.085950 -0.496590 0.765849 0.204541 -0.153853 -0.692892 0.638806 -0.323351 0.110125 0.291279 -0.164250 -0.610277 0.166820 -0.334224 0.128130 0.318138 -0.354446 -0.717565 0.351262 -0.202160 -0.557996 -1.164898 0.176152 -0.213018 -0.043867 0.264469 0.717230
and 0.521710 0.430192 -0.309844 0.601855 0.458700 0.258712 0.456083 0.443750 0.177049 0.602902 -0.270779 0.025755 0.164390 0.102048 0.158056 0.845335 -0.666818 0.131811 0.369463 -0.466691 -0.633834 0.062917 -0.828897 0.246362 -0.963536 0.623885 -0.348565 0.711579 -0.100995 -0.405794 0.320792 0.516882 -0.600880 0.371257 0.349994 0.031504 0.675514 0.849391 0.546896 0.280553 0.968500 0.154494 -0.243353 -1.168886 -0.118732 0.639308 -0.327184 0.143964 0.224085 0.567113 0.580948 -0.241318 -0.053750 -0.179764 -0.073219 0.101035 -0.080555 -0.236229 -0.246129 0.360620 -0.175141 0.107250 -0.446320 0.314328 -0.145113 -0.851265 -0.197210 -0.115019 -0.011287 -0.016296 -0.143945 -0.214753 -0.221612 -0.021493 -0.499560 -0.082386 -0.350246 0.616202 -0.221059 -0.271009 0.195775 0.780240 0.381310 -0.632863 0.251242 0.642361 -0.202078 0.633912 -0.580283 0.279731 0.183159 0.404285 -1.028209 0.377143 0.189672 0.646454 -0.277200 -0.315293 -0.295026 -0.054509
to 0.471434 0.293024 0.521607 0.101108 -0.117511 0.898832 0.855255 -0.057909 0.844505 0.092382 0.180728 -1.583941 1.024621 -0.803044 0.321697 0.666478 -0.157260 -1.120554 0.234444 -0.102450 -0.160925 -1.589767 -0.057509 0.802528 -0.618275 0.477714 -0.984906 1.238772 -0.126883 -0.187147 0.657401 -0.472978 -0.104716 -0.042091 -0.335272 0.135506 -0.288791 0.659157 0.141799 0.411091 0.182131 0.121122 -1.177158 -0.595129 0.027878 0.281054 -0.517915 -0.347173 0.107453 0.218600 0.513403 -0.607591 -0.834975 -0.094948 0.154203 -0.255888 -0.568888 0.300058 -1.509524 0.131000 0.511685 -0.255213 0.389580 0.047848 -0.023104 0.585472 -0.136659 -0.231537 0.180939 -0.387453 -0.042410 -0.428926 -0.403852 0.550104 -0.488483 0.443393 -0.019395 0.682323 -1.295521 -0.940190 0.708441 -0.237651 0.621122 0.810447 0.587064 1.585811 -0.205214 -0.295580 -0.993320 -0.751500 -0.162096 0.028523 -0.046307 -0.496762 -0.591834 0.160112 -0.044046 0.556746 0.306695 0.107951
a -0.916423 -0.485970 -1.432872 1.326625 0.418533 -0.155083 -0.531612 -0.303914 0.000728 0.122040 -0.068910 0.533335 0.277636 0.622724 0.942426 -0.407434 -0.316827 0.537493 0.830657 -0.510100 0.392788 0.040812 0.381188 0.700187 -0.437890 0.735156 0.212725 0.386446 0.342655 0.106973 0.613661 -0.286238 0.299454 -0.087058 -0.164418 -1.226004 0.101083 0.737499 -0.431219 -0.757522 -0.277540 0.314561 -0.032509 0.398251 0.026080 1.097847 0.787148 -0.273941 -0.315692 0.757959 0.432559 -0.839627 1.063515 0.633528 -0.476730 0.354059 -0.036962 0.189566 0.077547 -0.474324 -0.713416 0.063223 -0.230026 0.805055 -0.340470 0.397564 -0.462190 -0.087802 0.518006 -0.188066 -0.247244 -0.583984 -0.375531 -0.024978 -0.131021 -0.357217 -0.523454 0.084970 -0.004995 -0.191922 -0.898343 1.161169 -0.448772 -0.077397 0.459806 0.474512 -0.183834 0.503462 0.112087 0.965570 0.311864 0.304380 -0.667834 -0.595984 -0.210090 0.227106 0.106333 0.393376 -0.132687 0.004159
in 0.468808 0.153182 -0.613909 -0.105865 0.018591 -0.121974 0.521073 -0.283535 -0.128706 0.312624 -0.054134 -0.575501 0.334898 0.044787 -0.067777 0.080035 -0.164431 -0.305006 0.071543 -0.160185 -0.225742 0.366864 -0.366014 0.270639 -0.170364 -0.079192 0.302337 0.656777 -0.280996 -0.189898 -0.060133 0.572267 -0.226062 -0.611180 0.241311 0.501441 -0.116656 0.895028 0.052295 -0.206891 0.272944 0.539319 0.248571 -0.399366 -0.133285 0.181578 -0.578162 -0.555869 -0.119162 0.309318 0.214495 0.089914 0.408032 -0.195291 0.154542 -0.201884 -0.462785 0.388489 -0.406458 0.247628 -0.089498 -1.157836 0.187727 0.096256 0.042378 -0.585879 -0.065775 0.067762 -0.017114 -0.018609 -0.082685 0.500336 -0.023889 0.252223 -0.422396 0.218861 0.141073 0.420782 -0.600945 -0.164479 -0.164551 -0.226767 -0.225194 0.552312 0.094689 0.360828 -0.510530 0.260620 -0.538913 -0.133584 0.243602 -0.015833 -0.044461 -0.618334 -0.376277 0.608831 0.071025 0.283036 0.177102 0.559045
that 0.113129 -0.477266 -0.544609 1.093889 0.198630 -1.326831 0.781601 0.186217 0.944998 0.244921 0.072919 0.257372 -0.237534 -0.623328 -0.414071 0.965692 -0.273635 -0.799792 0.055967 -1.290827 0.256120 -0.602796 -0.078092 0.036760 -0.089337 0.300934 0.239250 1.075011 0.018083 -0.976145 0.679188 -0.624294 1.093817 0.068100 0.035528 -0.145185 -0.303635 0.002732 0.005373 0.384827 0.821420 0.782533 -0.228767 -0.739686 0.869932 0.881324 -2.029161 -0.349803 0.043283 0.289589 1.068994 -0.953142 0.288944 -0.867058 0.191002 0.713029 -0.770431 -0.335593 -1.008427 -0.461973 0.166876 0.246797 0.223503 0.383828 0.815618 0.195655 0.020534 -0.152090 -0.491241 -0.412872 -0.179148 0.325554 -0.908627 0.281114 0.245495 0.491447 -0.115977 -0.282128 -0.034384 -0.240985 0.165222 0.617970 -0.046683 0.220341 -0.247097 0.613533 0.336373 -0.599256 0.015551 -0.234011 0.604777 0.259702 -0.125607 -0.619580 -0.391696 0.833491 -0.625272 0.562880 0.163697 0.189617
is -0.205121 0.030616 -0.324550 0.019030 -1.369713 -0.855968 -1.307346 0.977161 0.497891 1.603662 -0.707744 -0.462367 -0.031484 -0.424985 -0.068958 -0.308182 0.509546 0.352184 -0.355518 -0.100499 0.532885 0.639571 0.655802 -0.009016 0.253713 -0.676863 0.974049 -0.833181 -0.728537 0.207988 -0.523648 0.207226 1.065828 0.289778 -0.726201 0.147012 -0.463515 -0.536142 -0.740770 -0.580566 0.175533 -0.471494 -1.129185 0.793857 -0.042431 -2.408507 0.501880 0.714120 0.275739 -0.668894 0.079766 0.628151 -0.564823 -0.062702 0.188755 -1.262361 -0.434941 0.825462 0.409988 0.408111 -0.558192 0.593126 -0.004078 1.166616 0.530124 -1.194356 0.731606 0.662761 -0.255712 -0.189761 0.404556 -0.210949 -0.306525 0.432487 -0.510716 0.162734 -0.953973 0.857399 1.412821 -1.046385 0.275505 -0.112028 -0.088095 -1.209614 -0.069918 -1.466805 -0.519572 1.664809 0.557050 0.199408 0.683085 -0.271288 -0.980613 -0.098638 -0.537350 0.209111 1.101302 -0.892293 -0.121538 0.489562
was -1.308310 0.239871 0.106196 -0.444190 -0.208068 -0.816785 -0.593702 0.123037 0.338279 1.275344 -0.181342 -0.297749 -0.814194 0.109831 -0.210475 -1.202271 0.163798 1.302262 0.109848 -0.347108 -0.201381 -0.186038 0.325645 -0.584029 0.344597 -0.593571 1.240985 -0.628790 0.314903 0.328431 0.027026 -0.245895 0.593205 0.811160 -0.707330 -0.331726 0.104274 -0.401429 -0.336825 -0.160491 -0.199833 0.298938 -0.619699 0.755498 -0.577774 -1.451170 -0.077647 1.372607 0.683861 -0.319827 0.284251 0.276689 0.985554 -0.121987 0.872893 -0.520323 1.571452 0.098301 0.834723 1.300969 -0.054458 -0.114792 0.432666 0.830708 0.329195 -2.040836 0.443549 0.775444 0.160659 0.024383 0.186862 0.613965 -0.266989 -0.332256 0.866439 -0.867058 -0.652961 0.117761 0.362937 -0.685275 0.151185 0.686173 0.378582 -0.527503 0.346987 -1.404304 -0.567469 1.361918 -0.196329 -0.289515 0.220853 -1.013700 -0.710041 0.015883 -1.342743 0.160149 0.782741 -1.213147 0.415535 -0.127708
for 0.543345 -0.716363 -0.401531 0.252434 -0.391373 0.234509 0.605931 -0.114591 -0.136500 0.107143 0.295183 -0.535794 0.428633 0.380634 -0.070541 -0.648218 0.078159 -0.244582 0.352090 0.052684 -0.094102 -0.712171 -0.203584 0.105490 -0.720768 0.342920 0.107377 1.271967 -0.450296 -0.341642 0.194466 0.250294 0.388443 -0.280968 -0.213370 0.183948 0.469337 0.101424 -0.369488 -0.646779 -0.097092 0.456391 -0.040809 -0.267030 -0.143943 -0.128067 -0.102176 -0.723478 0.058538 0.773675 0.201905 -0.292277 -0.629149 0.049015 -0.618788 -0.368350 -0.884506 0.591275 -0.575773 0.031600 0.386729 -0.636742 0.551779 0.146693 -0.045767 -0.283574 0.209380 -0.071509 -0.164775 0.330231 -0.717581 0.031803 0.071159 0.481584 -0.280930 0.392544 0.326186 0.821296 -1.067158 -0.276869 -0.397129 -0.656336 0.351651 0.562574 -0.087261 0.874167 -0.994587 -0.124147 -0.100251 -0.246718 0.614114 0.078907 0.265601 -0.057342 0.057246 0.713426 -0.150920 0.719757 0.140690 0.834110
`` 0.214848 0.030257 0.076954 0.444940 0.792564 -0.449749 0.059132 -0.987708 -1.142280 -0.170125 -0.312422 0.446950 -0.254715 1.085650 0.336931 0.751746 -0.518984 -0.471326 0.324349 0.369555 0.667908 -0.303632 -0.077612 0.157374 -0.061373 0.118747 -0.076137 -0.845650 -1.012727 0.266800 -0.708430 -0.355597 -0.947257 0.295719 0.184851 0.396917 1.130406 -1.379472 0.047604 0.038539 0.518271 0.408152 -0.136320 1.089714 0.449455 -0.925918 -0.578056 0.377226 0.393698 0.303028 0.891344 0.394535 0.976949 0.401846 -0.854428 -0.113299 0.522735 1.872343 1.225119 -0.330147 0.280259 2.064691 0.939840 -0.468828 -0.812724 2.373171 1.077357 -0.993806 -0.476704 -0.087640 -1.041851 0.906715 0.655421 1.545694 -1.623585 -0.169563 1.004214 -0.343397 1.487959 0.399798 1.277648 -0.380300 -1.260231 0.233387 -1.178984 0.019108 0.440095 -0.902769 0.905426 -1.035081 -0.804016 -0.949704 0.935602 0.768196 -0.141584 -1.265337 -0.139037 -0.750892 -0.487405 0.441070
'' -1.029068 1.325633 -0.312961 -0.629075 0.057984 1.114391 -0.471931 0.392574 -0.359370 0.335501 0.132296 -0.866470 -1.137554 -1.058636 -0.313954 0.771892 -0.432606 -0.528860 -0.123024 -0.651938 0.838236 0.151480 0.196701 0.073933 0.180201 0.147525 -0.091488 -0.633956 -1.732392 -0.082879 0.938331 0.169775 -0.400161 -0.254610 -0.972807 0.505896 -0.385426 -0.882989 0.059639 0.178944 -0.467123 -1.354123 0.580387 -0.226310 1.652049 0.526478 0.227199 0.256618 -0.230954 -1.201987 0.845728 -0.768185 -0.337879 -0.560458 -1.266381 0.840925 0.086748 -0.981824 0.229505 -0.705571 -0.683474 -0.270509 0.280322 1.176313 0.353795 0.316710 -0.376564 -0.525240 0.143457 1.112673 -0.552609 -0.835084 -0.020275 -0.159380 0.071390 -0.727112 -1.090134 1.377303 -0.148475 0.508137 0.555263 0.711769 -0.639310 1.217352 -1.147811 0.292175 1.230990 0.309994 0.608738 -0.412197 -0.240255 -0.279315 -1.153424 0.808761 0.422605 0.639165 -0.170979 0.298004 -0.642900 -0.973989
The 0.712024 0.424391 -0.947080 0.916072 0.390091 -0.136899 1.526378 -0.676214 -0.321587 0.364647 0.810011 0.615529 0.845967 -0.181196 0.104539 1.205101 -0.911573 -0.213604 0.557044 -0.362576 0.920806 0.251075 0.357484 0.342760 -0.381503 1.160023 -0.346134 -0.172113 -0.180601 -0.140307 0.050706 0.681560 -0.178765 -0.421201 0.212743 -0.088615 -0.191415 1.540325 -0.258664 0.627525 1.175584 0.206700 0.126334 -0.516614 -0.128801 0.927620 -0.938052 -0.684737 -0.880553 0.552374 0.102335 -1.089826 1.709549 0.130596 -0.155078 1.026383 -0.662285 -0.254053 0.116801 -0.838756 -0.063077 -0.246858 -0.370565 0.746188 0.455700 0.150273 0.911561 0.358005 -0.153231 -0.094473 0.281462 0.799781 -0.485445 0.383984 -0.337076 0.418203 -0.285168 0.511570 -0.840960 0.655122 -0.289217 1.007358 0.088866 0.616386 0.218138 -0.324631 -0.285344 0.890700 0.306615 0.886365 0.598405 0.848633 -0.063894 -1.324314 -0.485746 0.959363 -0.297738 0.487408 0.339112 -0.013671
with 0.743734 0.310919 -0.604330 0.394806 -0.099367 0.193992 0.261763 0.101360 -0.320012 0.366645 -0.278342 -0.385439 0.093542 0.299906 0.234497 -0.175555 -0.092841 -0.064662 0.308830 -0.304712 -0.420478 -0.127239 -0.449666 0.156729 -0.516050 0.617102 0.248995 0.417959 -0.123172 0.448702 -0.069407 0.587507 -0.492748 0.198882 0.534547 0.017611 0.456869 0.765481 0.108648 -0.687895 0.281129 0.094447 -0.029909 -0.695981 -0.438886 0.558722 -0.097761 -0.179690 -0.111937 0.441761 0.557333 -0.162952 -0.217234 -0.141504 -0.538046 -0.229545 -0.367837 0.225963 -0.543186 0.306677 -0.139425 -0.712760 0.525727 0.065502 -0.487768 -0.441629 -0.027415 -0.463734 -0.132781 0.846904 -0.528411 0.059283 -0.362004 0.575377 -0.073701 0.375323 0.252965 0.580476 -0.884530 -0.178655 -0.203263 0.510086 -0.156772 -0.287814 -0.288435 0.778146 -0.500375 0.558583 -0.462848 -0.181728 0.079251 0.165094 -0.387911 0.513425 -0.039801 0.362161 0.290429 0.017436 0.054016 0.194105
it 0.604260 0.104915 0.089533 0.700159 0.909203 -1.352148 -0.584302 -0.818500 0.961327 1.111738 0.202311 -0.764187 0.115059 -0.128351 -0.052438 0.924488 0.209727 -1.070944 -0.336658 -0.764266 0.457936 -0.841538 0.579983 0.735913 -0.687189 -0.060127 0.501382 0.715039 -0.036044 0.011693 0.709322 -1.440475 -0.046022 0.726227 0.204460 -0.371810 0.005894 -0.045470 -1.383092 -0.049737 -0.991529 0.006792 -0.787694 0.066606 -0.136616 0.864555 -1.009251 0.531790 -0.055807 0.990640 0.760264 -0.610573 0.312583 -0.019007 -0.071940 0.497025 -0.449239 -0.916190 -1.394359 -0.444498 0.488280 0.580273 0.238578 -1.093409 0.084268 0.732330 -0.342009 0.068415 1.043313 -0.281767 -0.140754 0.107831 -1.912387 0.502422 0.848469 0.368694 -0.302818 -0.446043 0.147381 0.179001 0.403887 0.022335 0.613106 -0.371005 1.153885 -0.008478 0.305077 0.094190 -0.238956 0.654809 0.768008 -0.212446 0.317081 -0.106492 -0.295372 0.036171 -0.283102 0.660065 0.340554 -0.330702
as 0.963793 0.507869 -0.782213 0.375413 0.278817 -1.160107 -0.800466 -0.050075 0.054121 -0.703350 -0.030638 -0.064504 -0.818422 -0.090462 -1.242618 0.756910 0.435941 0.332681 -0.508651 -1.139509 0.804440 -0.568022 -0.768506 0.217411 -0.438977 0.656298 -0.247958 1.378180 -1.371771 0.828674 0.263590 0.623258 -0.551169 -0.032720 -0.011989 -0.982029 0.823220 1.084898 -0.676994 0.126450 1.039831 1.448903 0.630168 -1.221118 0.468168 1.120167 -0.667607 -0.520795 -1.288429 0.421529 0.419529 0.757706 -0.166647 -0.484866 -1.250034 -0.175764 -0.418640 0.812992 -0.236729 0.959859 -0.082717 -1.094658 0.764251 1.183691 -0.729184 -0.039673 -0.639663 -0.013878 0.485246 -0.191519 -1.286149 -0.051506 -0.689711 0.405506 0.798741 0.765220 -0.127683 0.362491 0.185475 -0.439656 -0.729230 0.592099 -0.658251 -0.713146 -0.789782 -0.234579 0.967359 0.408398 -0.444134 -0.008735 1.248972 -0.467592 -1.523341 0.597167 0.179853 0.804148 -0.621070 -0.414234 -0.759518 0.500306
he -0.209020 0.443756 -0.340796 0.292706 1.298988 -0.840280 0.287277 -1.048975 1.235042 0.976743 0.396394 -0.338231 -1.176668 -0.322034 -0.705477 1.595872 -0.401963 -0.133743 0.368351 -0.814080 0.586283 -1.059170 0.264298 0.001021 -0.768106 0.352157 0.908528 -0.167863 -0.016564 -0.019660 1.341368 -0.824531 -1.239359 1.622285 1.329313 -0.029082 -0.288706 0.691479 -1.627801 0.188565 -1.306537 0.984034 -1.292855 0.827760 -0.788066 0.455314 -1.358545 0.208875 0.130422 0.703380 1.593058 -1.031410 0.575544 0.305982 0.508262 -0.043504 0.709217 -1.273196 -0.030988 -0.200512 1.025538 0.432553 1.253714 -1.188748 1.015784 0.801223 -0.254933 0.767419 0.973226 0.233152 0.681817 1.615996 -1.792775 0.059951 0.981902 0.631893 -0.111965 -0.723926 -0.729390 0.417839 1.093994 -0.232309 1.432742 0.511417 1.332318 -0.427445 1.201090 0.279774 -0.263244 0.088293 1.036879 -0.226135 0.452756 1.122233 -0.739960 -0.378329 0.321290 0.509613 1.499206 0.150713
his -0.318594 0.364970 -0.194497 0.994509 0.924245 -0.331317 -0.011141 -0.618894 0.519130 0.483523 0.498696 0.269030 -0.484831 -0.232710 1.220577 0.629413 -1.554876 1.906829 1.050565 -0.275055 -0.860666 -0.330964 0.674290 -1.066927 -0.039430 0.600768 -0.492045 -0.259805 1.212535 0.049361 1.356740 -0.454600 -0.894055 0.810601 1.309897 -0.291341 0.121786 1.196610 -1.325326 -0.060110 -0.307851 0.692624 -0.084340 0.209237 -0.480550 0.410207 -0.282450 -0.516622 -0.585682 0.405015 0.063525 -0.268790 0.727309 1.053175 0.497669 0.984225 1.221474 -1.870331 0.538350 -0.201177 0.834674 -0.452653 -0.226132 -0.373701 -0.528556 0.250591 -0.947162 0.266798 0.935878 0.192094 0.625634 0.505201 -1.904458 -0.047823 -0.041653 0.446318 -1.197462 -0.631795 0.273310 -0.245116 0.141681 0.643119 -0.291043 0.445159 -0.196187 -0.260059 0.347936 0.045064 -0.533704 -0.301808 1.256279 0.302946 0.139319 0.926730 -0.678643 -0.217798 -0.321245 -0.708288 0.188874 -0.590562
on 0.631281 0.105982 -0.550069 -0.232339 0.061491 0.661817 0.722512 -0.228830 -0.399329 0.392473 0.066271 -0.971095 0.344829 -0.164365 0.041338 -0.237258 0.132258 -0.804111 0.863320 -0.162142 -0.218698 0.265377 -0.360015 -0.168584 -0.227766 0.441481 -0.254952 0.165017 -0.331268 -0.167677 0.370645 0.597764 -0.448855 -0.088950 0.017582 0.296160 -0.220606 0.880207 0.414860 -1.389865 0.461146 0.108420 -0.099459 -0.522357 -0.545859 0.212012 -0.341596 -0.261738 0.222369 0.651283 0.222906 0.315647 0.023057 -0.411791 -0.062356 -0.662541 -0.177137 0.083204 -1.228734 0.360594 -0.052098 -0.769123 0.636023 -0.020391 0.145263 -0.009504 -0.119194 0.387028 0.441365 0.230491 -0.746616 0.251180 0.371949 0.019115 -0.245490 -0.059402 0.065042 0.234258 -0.549664 0.121152 -0.132076 -0.268460 0.477322 -0.073390 0.548863 0.481937 0.029516 -0.097778 -0.732432 -0.047742 0.098040 0.207194 -0.025763 -0.330086 0.012097 0.488996 0.401598 0.169755 0.358800 0.265092
be 1.209839 -0.164365 -1.166978 1.299911 -1.042053 -2.017738 0.678112 -0.096779 1.619588 -0.267932 -0.941912 0.573831 -1.364743 0.141469 -0.939093 0.318150 0.978694 0.940983 0.413400 -1.751154 2.440040 0.051158 0.944780 -0.375236 -1.629110 -0.157839 0.390643 -0.343160 -0.095507 -0.167002 -0.222117 -1.576918 1.547821 1.025900 -1.033816 1.843222 0.672246 -0.493441 -0.589515 0.530438 -0.866783 1.138764 -1.132886 0.427953 -1.368761 -0.910049 -1.673530 -0.003845 1.300026 2.028705 -0.538099 -0.919106 -0.765026 -0.753708 0.587754 0.518207 -0.921520 0.047015 -0.007677 -0.814887 -1.253871 0.042688 0.370403 0.600551 1.055667 0.152895 0.560020 -0.735362 1.423737 -0.103212 -1.224912 1.205119 -1.041791 -1.040535 -0.401948 0.861245 -0.523188 -0.873229 1.111308 1.744909 -1.541677 -0.781674 0.204421 -0.972948 1.648796 -0.592754 0.182431 -0.248548 0.569019 0.644676 1.451720 1.175447 -0.928068 0.771920 0.858758 1.720948 0.639222 0.645759 0.066726 0.796546
; 0.754983 0.968309 -1.710628 0.770245 0.279123 -1.323968 0.323981 0.156236 0.383465 -0.820631 0.263554 0.558129 -0.283710 -2.059875 1.384421 1.058634 -1.123229 -1.269583 1.130933 0.331847 -0.477424 0.072998 -0.698005 -0.384804 0.398199 -0.354014 0.052935 1.202875 0.927030 0.089752 -0.177443 0.221247 0.128902 0.270195 1.317507 -0.260012 -0.430581 0.043117 0.983202 0.312834 0.636210 0.498571 -1.023229 -0.756116 -0.292312 0.348742 0.305109 1.042440 1.131223 -0.189058 -0.298704 -0.566468 0.986232 -0.319789 -0.201902 1.160163 -0.143049 0.090748 -0.262248 0.778244 -0.970906 -0.568923 -0.945106 1.313846 -1.029198 -1.151448 0.110345 -1.415198 -0.838786 0.167883 0.411920 0.016781 -1.808446 0.147661 0.231765 -0.373045 0.397551 1.189426 -0.247872 0.670245 0.231964 -0.682445 -0.739166 0.275886 1.121745 0.262361 -0.356410 0.383230 -0.455271 -0.207276 -1.295852 0.191869 0.778064 0.096476 -0.494438 0.655668 0.449640 0.598417 -0.625846 0.206478
I -0.504804 0.562805 -0.509532 -0.865211 0.895035 -0.142654 0.982283 -0.647484 1.083242 -0.657859 1.044638 -0.914953 -0.813135 0.118121 -0.734755 2.336878 -0.761267 -2.071321 -0.084039 -1.591503 0.041552 -1.802930 -0.159751 1.133197 0.955492 0.374781 0.348649 -0.062984 -0.740032 0.539145 -0.215832 -0.419946 -0.907688 0.375882 1.061660 -0.496761 -0.122226 -1.417212 -0.940780 0.441654 -1.136924 -0.261169 -1.025718 0.727520 -0.444516 0.731496 -0.827505 0.028431 0.756263 1.262783 2.763399 -1.471435 -0.198111 0.265158 -0.593771 0.135195 0.266674 0.467686 -1.351776 -0.702600 -0.096534 1.903028 1.147163 -0.071905 1.872635 1.564058 -0.014448 0.566686 1.059462 -0.219920 -0.314199 -0.435651 -0.684600 -0.388643 1.849463 0.132342 0.511524 -0.609896 -0.048934 0.602411 1.111676 0.428841 0.101317 -0.055600 1.295397 -0.024112 1.089103 1.631859 0.285433 -0.180264 -0.227777 -0.158600 0.577741 0.573402 -0.704350 0.126345 -0.245824 1.059176 1.098901 0.559466
by 0.994917 -0.117996 -0.968217 0.395301 -0.580377 0.342902 0.210291 -0.398582 -0.598793 0.305197 -0.157132 -0.264037 0.675592 -0.133125 -0.626254 -0.225380 0.487758 0.118011 0.560985 -0.017003 0.923347 -0.616401 0.202471 -0.007587 -0.552195 0.518451 -0.067527 0.509177 -0.390618 0.003094 0.482229 0.368518 0.171821 -0.009092 -0.175435 0.211851 0.064843 1.565728 -0.079195 0.094535 1.123291 1.083353 -0.116100 -0.835595 -0.140276 0.184805 -1.453070 0.185825 -0.749512 0.033099 -0.227462 0.122469 0.262916 -0.903532 0.242668 0.083422 -0.591792 -0.015514 0.013210 0.523340 0.223628 -0.806077 0.104811 0.149305 -0.420828 -0.066580 0.224438 0.033652 -0.042180 0.733273 -0.265795 0.148125 -0.339804 0.517509 -0.289967 0.738725 0.258763 0.190300 -0.908661 0.149151 -0.689644 0.461824 0.943848 -0.225340 0.198725 0.440112 -0.635888 -0.214457 -0.485023 -0.031889 0.093210 0.551873 -0.121123 -0.629907 0.042789 0.572023 0.103160 0.242047 0.429662 -0.250879
had -1.381348 -0.605795 0.091510 -1.075603 1.160315 -0.131647 -1.415628 -0.830661 -0.764491 0.875835 -0.678372 -0.513760 0.286556 1.168589 -1.342266 -0.603223 0.415018 1.298511 -0.483205 -0.298323 0.266424 -0.438699 0.512799 -1.116931 -0.009801 0.347632 1.241982 0.473665 0.820197 -0.429783 0.755074 -1.278581 -0.383107 0.145441 0.812804 0.239674 0.441422 -0.290617 -0.870749 0.931004 -1.029376 1.249286 -0.244533 -0.784610 1.185901 -0.058767 0.096048 1.855051 0.181905 -1.178470 0.710910 -0.025670 0.701277 -1.134706 0.628232 -0.592137 1.895261 -0.990553 0.599350 2.550346 -0.243299 -1.420825 0.362793 -0.647555 -0.456656 -1.821904 -1.312141 -0.479149 -0.124769 1.301534 -0.067400 1.537534 -0.502838 0.629217 0.702287 -0.775726 0.235812 1.335189 -0.968507 -0.655699 -0.022632 -0.221343 0.387751 -0.086719 0.664814 0.877890 -1.341196 0.055028 -0.374009 -0.878813 0.646746 -1.665849 -1.151729 1.916535 -0.925729 1.419203 -0.294186 -0.181461 0.053431 -1.316269
at 0.415271 0.068803 -0.185215 0.053594 -0.126473 0.158244 -0.119055 -0.714135 -0.637331 0.702317 1.398788 -0.532489 0.372304 0.912928 -0.738721 0.042064 0.259568 -1.262468 0.931937 -0.152299 -0.450740 -0.632728 -0.786455 -1.233497 0.301671 1.374357 -0.130688 0.438545 -0.158833 -0.824931 -0.292289 0.804037 -0.004661 -0.196727 0.510515 0.306937 0.212920 0.304595 -0.193687 -2.154956 -0.417878 -0.189816 -0.526175 -0.769391 -0.439129 0.789570 -0.318254 -0.411214 0.789781 1.302809 -0.327748 0.860408 0.327149 -0.881313 -0.284588 -0.206330 0.420066 0.911560 -0.016444 -0.231233 1.011881 -0.256895 1.882862 0.607696 -0.367906 -0.966386 0.074103 0.264494 -0.215408 0.442200 -0.313561 0.231802 0.135410 -0.414801 1.077050 0.201393 0.600585 0.559657 -1.096139 0.329608 0.054121 -0.580119 1.609181 0.406978 0.729699 0.411949 0.013559 -0.543157 -0.702319 0.095996 0.146795 -0.502324 0.657787 -0.354179 0.168758 -0.013954 0.498683 0.233915 -0.066571 0.860352
? 0.061777 0.662699 -0.071726 1.416991 -1.382946 0.518511 -0.488249 -1.249335 -0.081991 1.401529 -1.260582 -1.062049 -1.149630 0.348598 1.527397 -0.768474 -1.659255 -1.248488 0.790143 -0.535842 0.186130 -2.154803 -0.569089 1.920949 0.422797 -0.696061 -1.011540 0.182945 0.027450 0.562991 0.038757 -0.575220 -0.952487 -0.425058 -0.469169 -0.629021 -0.785369 -0.493588 0.388895 0.468212 0.626177 -1.294181 -0.097427 -0.821294 -0.347933 -1.057125 0.242213 0.029748 0.110954 1.082278 -0.073361 -0.327524 -0.419484 1.488092 -0.403034 -0.314806 -0.135000 0.445570 0.079693 -0.200491 0.678974 -0.169409 1.107943 -0.724285 -1.258154 -0.807836 -0.200612 -1.041710 -1.192564 0.355837 -1.194516 0.254144 -0.126550 1.688689 -1.277046 -0.014887 0.752420 1.415425 -0.997160 0.468050 0.554299 -0.244673 -1.209878 0.541092 -0.967339 0.270679 0.602963 -1.443934 0.474642 -1.092535 0.708767 0.417126 0.873615 0.854785 0.401260 -0.590479 -0.809631 -0.852163 -1.362227 1.158621
not 1.114763 1.044199 0.589148 1.204268 -1.462191 -0.453102 -1.130255 -0.802550 -0.614301 -0.735985 -0.064008 0.005753 -1.168332 -0.388848 -0.538742 -0.078588 1.057422 -1.145531 -0.583295 -1.409171 -0.591762 -2.180428 -0.084843 0.558219 -0.031421 -0.477881 -0.099874 1.126266 -1.003547 1.257561 -0.376635 -1.185304 0.551644 0.379218 0.755179 -0.309991 -0.386099 0.598202 -0.346796 0.579356 -0.436177 0.424706 -0.999374 0.360257 0.769294 0.399815 -2.864547 -0.039671 -2.273988 0.365323 0.343942 -0.587400 -0.629174 -0.129301 0.693132 0.450946 -1.019763 -0.232836 -0.768177 -0.691435 0.256233 -0.563366 0.040870 -0.658220 -1.476406 -0.128827 -0.602408 0.007056 -0.887025 0.395912 0.552903 0.128592 -2.188139 0.885764 1.437597 0.672158 0.393167 -0.680707 0.710797 -0.105896 0.426923 0.356726 0.387534 -0.196929 0.792962 0.280667 0.434306 0.012721 0.085712 -0.594917 1.187613 0.400874 -0.054944 -0.440120 0.079010 -0.471164 0.575484 2.035241 0.555837 0.611779
are 0.213648 0.700999 -0.350368 -1.078164 -1.150108 -1.310512 -0.534310 1.422628 0.504019 0.174795 -0.333039 -1.516388 -0.186912 -0.883725 -1.306915 -1.327226 1.122631 -0.153306 -0.289012 0.538095 0.695855 1.450558 0.346674 1.016172 -0.106238 0.335664 1.073914 1.467661 -0.219096 -0.673746 -1.171767 0.502377 0.708585 -0.213404 -1.401814 0.594156 0.477977 -1.457764 0.013320 -0.644878 -0.536338 -1.036327 -0.848380 0.495874 0.688209 -1.258163 0.049430 -0.311654 -1.046195 0.255355 -1.402435 0.676614 -1.442658 -0.702268 -0.242379 -0.993817 0.649412 0.654565 1.190233 1.649772 -1.363949 0.750245 -1.686790 -0.363363 0.216840 -1.269773 0.645821 -0.489498 -0.908952 -0.350540 -1.760006 0.560731 0.157997 0.352012 -1.926240 -0.250347 -0.120619 0.119377 1.299085 0.846505 0.726279 -0.419304 0.842044 -1.447379 -0.894196 -1.586944 -1.461857 0.306075 0.439338 0.347132 -0.266066 -0.863173 -1.573591 0.685524 1.391460 0.921553 0.292407 -1.431741 0.107483 -0.732492
from 0.817565 -0.185996 -0.749417 -0.047122 -0.183983 0.334987 0.596048 -0.553398 -0.408957 0.094837 -0.193677 -0.428840 0.398238 0.156453 -0.211968 -0.306320 -0.047055 0.083026 0.335516 -0.244686 0.335466 0.112130 -0.402900 0.080903 -0.029527 0.342122 -0.178304 0.158059 -0.156993 0.212830 0.002664 0.639763 -0.194459 0.183012 0.357602 -0.057654 -0.011805 1.159973 0.552171 -0.431356 0.362046 0.508295 0.013485 -1.074547 -0.606610 0.165378 -0.473915 -0.021050 0.176836 0.390385 -0.013886 0.312354 0.485935 -0.822931 0.241150 -0.507267 0.013030 0.160960 -0.620933 0.560000 0.253216 -1.029440 0.610696 0.119611 -0.220392 -0.525855 -0.223838 -0.239301 0.263084 0.485284 -0.678039 0.516776 0.375991 -0.274429 0.052282 0.246887 0.099226 0.361788 -0.689076 0.319041 -0.416398 0.117860 0.498347 0.213640 0.605006 0.243102 -0.164506 0.030490 -0.224886 0.213449 -0.284701 0.066050 -0.416872 -0.304426 -0.578962 0.765186 0.275712 0.030939 0.192055 0.267905
or 0.161328 0.183565 -1.283226 1.194177 0.273044 0.403275 -0.793712 0.913164 0.437717 0.175275 -0.528247 -1.044881 0.337448 -0.087393 1.012254 -0.318252 -0.776191 -0.163348 0.422909 -0.524661 0.916919 -0.820580 -0.742328 -0.154886 -1.893661 0.929169 -0.419402 0.670910 -0.892660 -0.299611 0.660958 0.216447 0.684018 0.132116 -0.149850 0.131176 0.728713 0.264699 -0.478433 -1.179494 0.487094 -1.403241 -1.642703 -0.360979 -0.200775 0.084129 -0.105406 -0.560521 -0.066816 0.845943 0.756717 -0.298185 -0.545092 -1.333930 -0.675161 0.067093 -1.011047 0.228319 0.529623 0.078439 -0.236743 -0.617307 -0.394511 -0.442825 -0.835716 0.307893 -0.295486 -0.769593 -0.066250 0.420610 -0.687806 -1.159021 -0.747783 0.469562 0.149785 0.451457 1.011168 0.552678 -0.862953 0.423708 -0.422257 -0.120100 0.037698 -0.290420 0.352179 1.459717 -0.590684 0.800295 -0.427050 0.690388 0.429356 0.667588 -0.557103 1.092519 0.509256 -0.062441 0.528258 0.244392 -1.064284 0.453137
this 0.304328 -0.976186 -0.095233 0.642955 -0.353607 -0.937360 -0.329794 -0.568073 -0.166405 0.663121 -0.065499 0.458670 1.172837 0.090734 0.161794 0.965786 -0.338321 -0.303243 0.033445 -0.797684 -0.157689 -0.175652 0.427339 0.703909 0.618176 0.237167 -0.439541 0.013876 0.349321 -0.481399 0.427408 -0.420291 0.706457 -0.881628 0.081367 0.078287 -0.217768 0.412869 -1.286617 0.315233 -0.340100 -0.217027 -0.247992 -0.180194 0.609570 0.584299 -0.082878 -0.554530 -0.575484 0.310579 0.785332 -0.619716 1.064257 0.250802 0.109053 0.348851 -0.783290 -0.405936 -0.742657 -1.411862 0.577532 0.763030 -0.363248 -0.355579 0.058411 0.408077 -0.501672 0.302276 0.297740 -0.937058 0.074287 -0.093746 -0.698951 0.510707 -0.236970 0.019203 -0.011244 -0.233746 0.608926 0.355504 -0.079855 0.485169 -0.391868 0.095727 0.144980 -0.625273 0.113090 -0.340229 0.720159 0.543152 0.858099 0.300602 0.807292 -1.111603 -0.129012 0.049548 -0.627608 0.018179 -0.333238 0.038133
have 0.961645 -1.684673 -0.467000 -0.939923 0.461629 -0.866595 -0.447164 -0.992329 -1.127220 -0.706220 -1.225755 0.076658 0.576962 1.288324 -1.776500 0.220364 1.294128 0.578519 -0.424588 -0.941299 1.430426 -0.003125 1.191927 -0.800778 -0.744479 -0.107094 0.761186 1.013690 0.186882 -0.499910 -0.402346 -1.743505 0.464079 -0.476553 0.935727 1.878859 1.149171 -0.965630 -0.406979 1.018707 -1.493267 1.239625 -0.422594 -0.971652 1.539347 0.054917 -1.095834 0.705979 0.237827 0.092707 0.421491 -0.836460 -1.047310 -1.788024 0.512278 0.051669 -0.100182 0.013048 -0.634455 0.517251 -1.053721 -0.559862 -0.447095 -0.324328 -0.401597 -0.463742 -0.704952 -1.862479 0.223321 1.394962 -1.647232 2.037804 -0.583148 0.418290 0.019188 -0.099573 0.458476 0.148585 0.110449 1.498995 -1.540307 -1.079852 -0.903219 -0.486032 0.443314 1.242333 -1.295028 -0.589081 0.656233 -0.756350 1.299374 -0.695312 -0.227486 1.927436 0.434650 2.426298 -0.521059 0.959254 -0.754207 -0.670020
an -0.257409 -0.380791 -1.221650 1.021618 0.202585 -0.241842 -0.755661 -0.539316 0.289058 0.141570 -0.197682 0.270071 0.739368 0.140789 0.492611 0.158229 0.077777 0.100521 0.163953 -0.374413 0.750032 -0.008490 0.600715 0.613637 -0.368878 0.082094 -0.238109 0.365990 0.126156 -0.228535 0.738476 -0.760289 0.677224 -0.079961 -0.056689 -0.285252 -0.201355 0.921697 -0.719217 -0.142941 -0.224261 0.224288 -0.583862 -0.017895 -0.159844 0.623049 -0.016466 -0.166355 -0.457022 0.362272 0.404507 -0.062426 0.815649 0.117193 0.108548 0.482535 -0.429584 -0.005575 0.059882 -0.900597 0.359372 -0.029262 -0.170593 0.738353 -0.825289 0.746330 -0.339118 -0.145420 0.569225 -0.450429 0.202978 -0.200525 -0.661036 0.674306 -0.449095 0.054046 -0.431159 -0.260894 0.018352 -0.233095 -0.762722 0.327388 -0.526390 0.358324 0.351360 0.145726 -0.011127 0.196344 -0.085074 0.656956 0.221355 0.363124 -0.354900 -1.052419 -0.449926 -0.091328 0.041721 0.150400 -0.366408 -0.001988
which 0.788481 -0.222752 -1.073010 1.611749 0.001533 -0.898628 0.217687 0.514395 0.548286 -0.021735 -0.338440 0.816456 0.470312 -0.212244 -0.035889 1.469661 -0.663274 -0.378246 0.389830 -1.036054 0.183640 0.096702 -0.072901 -0.046162 -0.964152 1.214209 -0.269311 0.937199 0.431014 -0.857612 0.668849 -0.012745 0.918965 -0.193272 0.314381 -0.138743 0.438692 1.195321 0.056471 0.960513 0.964188 0.450721 0.067597 -1.569043 0.015642 1.232617 -1.080411 -0.730320 -0.418311 0.565865 0.403816 -0.342344 0.220334 -0.679113 -0.345980 1.284765 -1.152978 -0.258126 -0.600459 -0.823072 -0.005946 -0.076126 -0.291127 0.588669 -0.134523 -0.115084 0.125969 -0.204072 -0.133855 -0.533654 -0.367201 0.045804 -1.362693 0.343045 -0.524783 0.926211 0.470417 -0.089275 -0.220216 0.354787 -0.943354 1.249534 -0.086885 -0.351946 -0.172288 1.395809 -0.109577 -0.225678 0.074991 0.109397 0.005248 0.736816 -0.575278 -0.807672 -0.554936 0.610950 -0.839426 0.001599 -0.626686 0.210291
-- 0.578632 0.367160 -0.692243 -0.131310 0.400169 -0.524552 0.225044 0.813608 -0.446798 0.004524 -0.387959 -0.518828 -0.012320 0.716469 0.832541 -0.534513 -0.596330 -0.829600 -0.059838 -0.424295 -0.811591 0.145905 -1.103822 0.035476 -0.577553 -0.091858 0.793667 0.876290 -0.561616 -0.009260 0.843989 -0.002060 0.363782 -0.293726 -0.378355 -0.510772 1.008334 -0.547958 -0.509675 -1.105529 0.504805 -0.965443 -0.559856 -0.320431 0.171952 0.836604 -0.154326 -0.560353 -0.458046 0.367948 1.751840 -0.335142 0.159423 -0.021675 -0.944787 -0.287891 0.119754 -0.665642 0.051671 -0.048951 0.364205 -0.042155 -0.188965 -0.130493 -0.797322 -0.297739 -0.014305 -0.257971 -0.260385 0.659913 -0.172986 -0.190921 -0.935087 1.001551 0.509024 -0.268992 0.104581 0.212703 -0.691016 -0.510734 0.523335 -0.635706 -0.022384 -0.428658 -0.629093 -0.004622 -0.503998 0.442283 0.009337 -0.423857 0.237203 0.448427 -0.945798 1.320468 -0.101325 0.192880 -0.804374 -0.184716 0.235291 0.598547
were -0.931836 0.835716 -0.337579 -1.003259 0.137316 -1.203679 -0.121024 0.843370 0.452040 0.452881 -0.014878 -1.023969 -0.610285 -0.424970 -1.563893 -1.601277 0.690455 0.515253 0.260587 0.419906 0.221061 0.857835 -0.110087 0.427857 -0.379192 0.514985 1.276827 1.301562 0.438202 -0.443559 -0.148593 0.319111 -0.078242 0.532920 -0.913764 -0.007340 0.602338 -0.833408 0.273546 -0.508541 -0.525929 -0.209273 -0.472794 0.218100 0.111756 -0.472680 -0.347505 0.543414 -0.447734 0.621346 -0.942721 0.592679 0.268313 -0.701761 0.450233 -0.833501 1.928294 0.266808 1.291099 2.606146 -1.058831 -0.073401 -1.043169 -0.815815 0.282429 -1.951620 0.254588 -0.138693 -0.449266 -0.251686 -1.675023 1.170162 0.074315 -0.235226 -0.729477 -0.791448 0.075436 -0.409097 0.350503 0.853166 0.750638 0.055290 1.661344 -1.143379 0.067155 -1.028682 -1.064356 0.075986 -0.281955 0.175439 -0.403110 -1.490031 -1.395083 0.814861 0.651717 0.749628 0.393026 -1.691565 0.744771 -1.088001
but 0.363325 0.162996 0.146593 1.495586 0.338884 -1.155401 0.340134 0.942670 0.402157 1.185805 0.415422 0.301721 -0.132363 -0.371503 0.539875 1.510718 -1.175763 -0.223860 0.070637 -0.603040 -0.436719 -0.644531 -1.269048 -0.154815 -1.468948 1.581078 0.731570 1.449890 0.298047 -1.044659 0.460922 0.145423 0.581185 -0.297017 0.231462 0.063099 0.859718 -0.248740 -0.403669 0.202992 0.588663 0.127014 -1.250904 -0.543991 -0.131774 0.169168 -1.363988 0.160862 1.194278 0.526809 0.627037 -0.965031 0.281400 -1.192448 -0.308655 0.327149 -0.335701 0.264678 0.082355 0.875267 -0.495042 0.711372 -0.193478 -0.031028 0.668055 -0.618089 0.205500 -0.213817 -0.443948 -0.392261 -0.232319 -0.721444 -1.631523 0.150001 -0.057876 0.596823 0.272299 0.982208 -0.112080 0.140847 0.395306 0.989099 0.131740 -0.875178 0.272551 1.534219 -1.083158 1.117897 -1.096620 0.018928 1.092991 0.132974 0.132259 0.919026 -0.820841 0.758620 -0.458246 -0.044489 -0.251895 0.069681
He 0.225824 1.208827 -0.835980 0.912732 1.124571 -1.047264 1.269750 -1.081264 0.982552 0.869087 0.830527 -0.340793 -1.016225 -0.731124 0.245517 1.778112 -0.717703 0.133667 0.320477 -0.498715 0.862363 -0.882918 0.431265 -0.332731 -0.895609 1.348775 0.499382 -0.111164 0.547596 -0.202518 0.691854 -0.593210 -0.603123 1.129053 0.808763 -0.230111 0.077501 0.666004 -0.633898 -0.028189 -0.869346 0.608611 -0.724521 0.537009 -1.157494 1.168739 -1.397180 0.283843 0.894002 1.065312 1.138813 -1.449567 0.879878 0.148758 -0.228974 0.775779 0.222996 -1.466582 -0.378554 -0.185932 -0.046743 0.620166 1.021805 0.026971 1.137504 0.157825 0.579343 -0.012383 1.016308 0.028504 0.429731 0.898377 -1.942673 -0.650093 0.539976 0.769536 -0.542768 -0.248897 -0.983122 1.026141 0.183647 0.755540 1.069033 0.477026 1.386878 0.634653 0.370750 0.602920 -1.027072 -0.019148 0.446482 0.080309 0.251318 0.922876 -1.393463 0.509196 -0.128030 0.703519 1.287242 -0.036693
her -1.280270 0.895549 -0.394304 1.183384 1.225742 -0.458245 -0.657132 -0.830816 1.012863 0.567727 0.775741 -0.725899 -1.003238 0.586479 0.773400 0.043740 -0.721251 1.353112 0.059605 -0.180774 -0.823838 -1.597519 0.299400 0.265347 0.432855 0.110394 -0.816964 -0.186518 0.549592 0.224792 0.310406 -0.698678 -0.432009 1.470378 0.221295 -0.911680 0.822145 -0.463675 -0.269772 -0.093515 -0.318020 -0.368839 0.915355 -0.527121 0.354717 1.403623 -0.262882 1.680161 0.588716 1.675671 0.969561 -0.533588 1.568794 1.002018 0.409817 0.831232 0.907813 -0.890913 -0.397015 0.190120 0.076840 -0.167825 0.190171 0.269375 -0.464394 -0.310348 -0.547553 -1.255258 1.605762 0.288173 0.331088 -2.016603 -0.980980 -0.124631 1.754017 -1.052732 -0.625617 -0.623934 -0.284180 0.326350 -0.045062 0.465417 -0.042189 -0.852531 0.443832 0.808226 -0.556600 -0.042873 -1.046150 -0.235842 -0.405249 -0.996389 -0.311122 1.313884 0.137876 -0.251916 -0.613592 -0.532893 0.308374 -0.723293
one -0.767884 0.014982 -0.965904 0.588963 0.290051 -0.296652 0.520894 0.166443 -0.254662 0.435145 0.353228 0.136172 0.826920 1.030146 0.682115 -0.269411 -0.099695 -0.960046 -0.254800 -0.527901 0.037348 -0.041535 -0.265861 0.147187 -0.413163 0.446019 0.626755 -0.068683 -0.174100 -0.394040 -0.149987 -0.335974 0.694901 0.049439 0.418831 -0.315170 -0.294865 -0.697960 -0.444863 -1.429980 -0.284536 -0.667572 -1.690404 0.408893 0.444821 -0.052974 -0.744767 -0.340177 -0.162301 0.462050 1.385947 -0.785994 0.893485 -0.899091 -0.212314 0.060859 -0.181690 -0.294390 -0.056891 -0.425578 -0.061638 -0.190338 0.152290 -0.948924 0.216125 0.666458 0.357065 -0.104290 0.256488 0.486649 0.057553 0.598781 0.026392 0.618241 0.481676 -0.337627 0.478094 -0.313960 0.031508 0.077467 -0.114666 0.298224 0.581529 -0.316784 0.681090 0.188517 -0.100626 0.650299 0.370607 0.747198 0.500599 0.188046 -0.018594 0.418788 -0.378441 -0.110506 1.060419 0.850326 0.255153 -0.269267
they 0.732321 1.062967 -0.275397 -0.388183 1.161316 -0.483705 0.650009 -0.303735 1.637814 0.063143 0.012437 -0.973635 -0.806954 -0.718715 -1.087218 1.671717 0.145213 -1.038546 0.627262 -1.357153 -0.097965 -1.669517 0.018453 0.679259 0.086996 0.169352 0.245882 1.129292 0.100993 0.061476 0.193887 -0.684957 -1.655768 1.033120 1.514696 0.814659 -0.234235 0.396612 -1.027607 1.460096 -0.683149 0.150412 -1.269356 -0.118306 -0.211764 0.533652 -1.503935 -0.555628 -0.359464 1.805252 -0.206559 -0.239204 -0.582498 -0.463203 0.593849 -0.451161 -0.120009 -0.185144 0.028289 1.300706 0.056752 0.230164 0.131916 -2.438975 1.803308 0.804663 -1.295400 0.302958 0.300432 -0.021552 -0.520223 -0.416568 -1.717350 -0.504256 0.801597 0.829192 1.105990 -0.381669 -0.818620 0.418606 1.873016 -0.936012 1.415546 -0.901106 2.250369 -0.325790 0.151902 -0.019315 0.515591 0.311803 -0.472125 0.726836 -0.358117 0.544244 1.470664 0.364013 -0.287041 0.965490 1.262497 0.172268
you 0.652828 0.369984 -0.371494 -0.582476 0.480568 1.283515 0.226509 -0.399524 1.042738 -0.644277 0.241263 -0.864894 -1.062241 0.155653 0.342169 1.530856 -0.993524 -2.291715 -0.086858 -1.096234 -0.360069 -2.328904 0.002886 1.171372 0.544872 -0.419499 -0.639532 -0.333307 -0.946773 0.853671 0.260123 -0.520578 -1.560823 0.376933 0.318294 -0.634500 0.103558 -1.407064 -1.151235 0.089559 -0.595628 -1.484733 -1.335563 0.743331 -0.150288 -0.264903 0.292614 -0.550660 0.732477 1.317890 1.393494 -0.966073 -1.700913 0.862678 -0.904105 -0.280862 -0.126447 0.881942 -1.119785 -0.879521 -0.562660 1.982775 0.611124 -1.395331 1.574205 2.815167 -0.850311 -0.014473 1.392124 -0.018223 -1.384229 -2.143429 -0.498679 0.264190 1.088484 0.195691 0.767409 0.016342 0.728142 0.200078 1.418323 -0.405641 -0.134243 -0.514180 0.749317 0.135062 1.372426 0.293320 0.598616 0.144829 0.022129 0.868375 -0.008080 1.482232 0.999005 0.180934 -0.416083 0.428208 0.120378 0.794068
all 0.361900 0.519105 0.053735 -0.017916 -0.317860 -0.662248 0.623000 -0.392753 0.276389 0.209581 0.003122 0.238194 -0.410508 0.218298 -0.064291 0.417316 0.473803 -0.776137 -0.616044 -1.103271 -0.919098 -0.225225 0.124934 0.359784 -0.035907 0.238336 0.182992 0.636618 0.355037 -0.388039 -0.004648 -0.325656 0.007751 -0.431142 0.300001 0.664952 -0.115080 -0.265952 -0.194208 0.401296 0.261773 -0.477243 -0.676253 -0.202911 0.542260 0.806247 -0.987140 -0.235200 -0.488808 0.320268 0.490193 -0.753527 0.149245 0.325052 0.099069 -0.075133 -0.222046 -0.612836 -0.286741 -0.301543 -0.321013 -0.174500 -0.202210 -0.835795 0.161427 -0.084907 -0.633640 -0.219424 -1.116097 0.067264 -0.131322 0.241606 -0.815409 0.848111 -0.469492 0.343310 0.609411 -0.016957 -0.455356 0.648765 0.578772 -0.046604 0.077064 -0.244721 -0.101454 -0.531688 -0.051994 -0.912959 -0.305398 -0.081207 -0.023567 0.063965 -0.750115 0.640598 0.646980 -0.018174 0.116457 0.089137 0.108931 -0.059687
would -1.208730 0.091865 1.018206 -0.129149 -0.478693 1.051965 -1.715425 0.618632 0.481957 0.567334 0.305121 -2.511956 1.018865 -1.139286 -0.113566 -0.442955 -0.120918 -0.786734 -0.313067 0.232244 -0.178688 -1.683262 -0.243401 0.446535 0.420835 1.116921 -0.432093 0.959344 -0.057876 0.062746 0.331727 -0.494849 0.266435 0.085478 -0.658117 -0.471385 0.113235 -0.027418 -0.410722 1.394086 0.131498 -0.441310 -1.211652 -0.378626 0.529517 -0.890513 1.347068 0.723516 0.656550 -1.018653 0.029639 -0.016183 -0.769317 -0.668112 -0.377660 -0.736782 -0.249055 0.768482 -0.526109 1.510601 0.947445 -0.088645 0.292672 -0.109458 -0.232644 0.234280 -1.066761 0.638594 -0.930894 -0.882214 0.364643 -1.484535 0.078067 1.020618 -0.444282 -0.060486 0.822291 1.734547 -0.782334 -2.065765 1.457605 0.237608 0.615529 1.065085 0.469359 1.176614 -0.924171 0.785972 -0.589593 -0.587470 -1.223577 -1.176405 -0.910910 -0.736567 -0.978282 -0.098987 0.750671 -0.604135 -0.400272 -0.786365
him -0.701537 0.474817 -0.295706 0.210684 0.878458 0.000941 0.184256 -0.950946 0.867048 -0.002979 0.644493 -0.401413 -0.999244 -0.317861 0.416465 0.243918 -0.379923 0.476631 -0.299591 -0.480763 -0.222029 -1.508284 0.458243 -0.226381 -0.522816 0.748866 -0.342760 0.225881 1.065243 -0.070841 0.733340 -1.423398 -0.115917 0.917853 0.430346 -0.597438 0.512817 -0.518446 -0.381892 0.425958 -0.856491 -0.111412 -1.131338 0.559709 -0.810636 0.369301 -0.733604 0.632113 0.794218 0.755197 0.547189 -0.747315 0.175863 0.228354 0.235436 0.369015 1.222453 -1.099746 0.074600 0.389086 0.140655 0.822510 0.288230 -0.683825 0.105115 0.597796 -0.562466 -0.245826 0.738256 -0.400763 -0.262095 -0.226487 -1.148156 -0.096750 0.090483 0.018344 -0.068496 -0.718265 0.096386 0.387200 0.207069 0.626320 0.663260 0.533719 1.043135 0.580758 0.233383 -0.051624 -0.928540 -0.216386 -0.083211 -0.108272 -0.677500 1.246597 -0.847678 -0.027065 0.095869 -0.380099 0.454420 -0.761391
their 0.727677 1.120393 -0.149418 0.331524 0.032030 -0.717825 0.373219 -0.307516 1.199345 -0.451575 0.220381 -1.232899 0.513306 -0.649836 0.293867 0.490114 -0.270059 0.845379 0.307553 -0.521095 -1.404950 -0.161309 0.273881 0.382653 0.427890 1.395419 -0.815064 1.653456 1.358845 -0.422417 0.054959 -0.181535 -0.531286 0.208732 0.948338 0.686989 0.450541 0.678171 -0.321678 0.813000 -0.400439 -0.521033 0.130223 -0.219321 0.205742 0.834851 -0.484926 -1.202050 -0.791677 1.525391 -0.856848 -0.012181 -0.149274 0.597851 0.278451 0.309469 0.371999 -1.041320 0.346406 0.806943 -0.263077 -0.000818 -1.465854 -1.410952 -0.081556 -0.429417 -0.727144 -0.528972 -0.320778 -0.503729 -0.221667 -0.714820 -0.900771 -0.247207 -1.290831 0.658793 0.225866 -0.521965 -0.216003 0.702245 0.649843 0.019988 0.385702 -0.382367 0.136897 0.304001 -1.135856 -0.562849 -0.303380 -0.157630 -0.639267 0.053831 -0.588258 0.350864 1.307573 0.559448 -1.185392 -0.079745 0.151570 -0.493210
been -0.531967 0.347413 -0.945323 0.948646 0.723803 -0.612189 -0.553396 -0.453656 2.911460 -1.501830 0.212730 -0.950089 -1.883928 -0.460559 -1.799369 -0.502882 0.183890 0.681542 -1.108641 -1.985715 1.021635 0.257540 -0.976808 1.352083 -0.704182 1.231987 0.130143 0.536040 -0.108333 -1.451649 -0.161952 -1.330087 2.103863 1.768390 -0.610626 0.183049 0.670232 -0.128729 -1.178478 1.911436 -1.218249 0.411941 -0.009333 1.093225 -2.281746 0.188177 -0.638979 1.064385 0.809266 1.883178 1.094171 -0.768706 0.831415 0.288398 0.046469 -0.269098 -0.064382 -0.715132 1.624145 -0.216218 0.296466 0.148016 1.218832 1.125071 0.891079 -0.373314 0.258859 0.830142 0.569600 -1.746099 1.022355 0.879307 0.873116 0.269130 -1.149339 -0.513625 1.675720 -0.841194 -0.281522 -0.654713 1.561676 0.376570 0.226908 0.588578 0.223001 0.270057 -0.942441 1.003414 -0.140453 0.485666 -0.584511 -0.322044 -2.077640 -1.628002 -0.446616 0.222231 -0.733425 0.000891 1.278158 1.581886
) 0.986093 0.468872 -1.285936 -0.305687 0.988199 0.400294 0.003550 -0.940783 -1.344846 -0.482290 1.632773 -2.042673 0.047049 0.242259 -0.608746 -0.150851 1.195815 -0.752477 -0.453141 0.566405 0.897044 -0.827348 1.092249 0.187547 -1.655892 -0.929366 -0.083928 1.356008 -0.540679 -0.352079 -1.350807 0.582452 0.087553 1.813314 1.912970 -1.303028 0.665401 -1.067596 -0.563584 0.293562 1.291789 -0.807314 -0.152339 -1.937722 -0.944339 0.727962 -1.789745 -0.457176 -0.586627 1.747195 -0.844993 0.433167 -0.544201 -0.707899 -0.477334 0.189612 -0.260716 0.027355 1.036230 -1.016478 1.632067 0.859615 -0.095117 1.010513 -1.595479 0.546973 1.352680 1.684629 -0.920401 1.284354 -0.753840 1.810295 -1.090353 1.223825 -0.131930 1.086601 1.295331 0.259388 -0.358364 -0.288291 -1.222320 1.655066 0.372268 0.075503 -0.428866 -0.302260 -0.722793 2.201476 0.963410 0.432103 -1.095201 -0.568797 -1.331472 -0.203118 -0.198865 -2.083018 -0.038207 -0.879434 -0.695046 -0.875304
( 1.003568 -1.344706 -0.478276 -0.503602 -1.085395 1.242849 -0.988154 0.330043 0.586701 -0.826443 -0.400465 2.106865 -0.603938 -1.831871 -2.094772 0.312937 -0.696573 -1.249041 1.105605 0.021193 0.356376 0.241798 -1.287859 0.438065 -0.438114 0.346314 -0.681449 -0.762498 -1.846033 0.430873 2.432021 0.693196 0.762432 -0.663468 -1.435872 0.221216 -0.847931 1.318448 -0.336659 -0.902435 0.294422 0.020516 -1.496348 0.628303 -0.188250 -0.709061 0.039314 2.392703 -1.410590 -1.478577 1.504082 0.157124 0.635675 0.049978 2.041435 -0.037579 0.891254 1.392741 -0.058585 -0.308946 -1.315477 -0.228471 -0.037748 0.712110 -0.062611 0.578932 -0.245654 -1.286474 0.410482 -0.736668 -1.340742 -2.017421 -0.444265 1.064073 -0.281068 -0.940044 -0.196704 -0.447163 0.666951 1.446607 1.370583 -1.370634 1.491691 -0.286281 -0.142298 -0.786656 0.524390 -1.141583 -0.675745 1.090457 1.102306 1.103435 -0.026836 0.033011 -0.134340 1.655562 0.017214 -0.745296 0.969881 1.118271
has -0.172465 -1.635243 -0.192528 -0.645779 0.152525 0.066879 -1.798196 -0.817465 -1.660889 1.053019 -1.387675 0.016692 1.519082 1.403677 -1.499349 0.112485 0.745412 1.737498 -0.438001 0.125365 1.484616 0.529218 1.865682 -1.609651 0.124605 -0.878837 0.881388 -0.429358 -0.256069 -0.542507 0.387796 -0.754603 0.376186 -0.159329 0.881292 1.129752 -0.302422 0.204444 -1.254193 1.211255 0.143705 1.541515 0.564001 -0.915118 2.235257 -0.943338 0.020473 1.714665 -0.459036 -2.047010 0.633266 0.020720 0.337318 -0.782423 0.728879 -0.866010 -0.108133 -0.550954 0.258717 0.923629 -0.511147 -1.485143 -0.110017 0.846644 -0.792612 -1.582199 -0.647223 -0.093977 -0.306880 1.968007 0.879918 1.757875 -0.350814 1.221096 -0.029369 -0.004369 -0.213949 1.996143 -0.467707 -0.966253 -0.930242 -1.051598 -0.602423 -0.478557 -0.266706 0.873510 -1.773293 -0.006030 0.536885 -1.205799 1.195074 -1.447123 -0.551597 1.110755 -0.953947 1.481515 -0.495998 0.489825 -0.219590 -0.620664
will 0.282950 -0.337653 1.256109 -0.534274 -0.998769 1.234369 -1.290409 0.503711 -0.334462 0.443668 0.630547 -2.646195 2.009380 -0.568673 0.363839 -0.786796 0.201290 -1.211098 -0.211871 0.468382 -0.314868 -1.380006 0.304075 0.237021 -0.046390 1.262851 -0.921649 1.199293 -0.466357 -0.001824 0.028165 -0.001232 0.370325 -0.833154 -1.354835 -0.288716 0.500077 -0.066734 -0.806933 0.832586 0.959430 -1.102016 -1.176351 0.103562 0.817282 -1.423763 1.408393 -0.148910 0.611727 -0.725053 -0.748551 0.117603 -1.169147 0.221262 -0.788962 -0.959077 -0.770828 1.261780 -0.924483 0.814971 0.160971 0.189373 -0.272643 0.236819 -0.573093 0.463521 -0.246452 1.106776 -1.189029 -0.937734 0.031519 -1.571552 0.436881 1.297492 -1.112756 0.514187 0.580443 1.710011 -0.179088 -1.250007 0.735993 -0.263654 0.406441 0.741641 -0.199495 0.670800 -0.892225 0.155045 -0.360350 -0.890979 -0.693688 -0.984396 -0.901861 -0.973460 -0.477732 -0.038390 0.635126 -0.646676 -1.076026 -0.536415
who -0.083868 0.180680 -2.083811 1.603602 -0.450111 0.304454 1.714999 0.414318 0.569294 -0.813465 0.656803 1.671769 -1.141705 -0.481467 0.121795 1.431311 -1.470390 0.716486 0.216316 -0.356947 -0.006164 -1.690978 -0.407942 0.340499 0.100288 1.807587 0.222988 0.582774 0.637271 -0.598027 0.975477 0.376116 0.546606 0.909478 1.245715 -0.719149 0.663309 0.210914 0.081816 1.171766 0.285474 1.123308 0.066470 -0.556206 0.089645 0.209866 -1.873548 -0.573868 0.001499 0.259907 1.220593 -1.469667 0.046669 -0.031715 -0.936199 0.669485 -0.585084 -0.604965 1.005426 1.048571 0.196584 0.203866 0.027633 -0.320381 1.020398 0.853409 0.152227 -1.624871 0.096313 0.583002 0.576328 -1.509094 -0.613795 0.604153 -0.514319 1.000972 0.978222 -0.284334 -1.220149 0.646402 -0.095475 1.347496 0.326644 -0.004659 -0.771702 2.336790 -0.584335 -0.006295 -0.362784 -0.953771 -0.320955 1.072117 0.218322 1.543031 -0.095763 0.787085 -1.081298 0.334451 1.721770 0.175373
more -0.733203 -0.549705 -0.562568 0.921441 -0.768203 -1.004122 -0.476301 1.121084 1.530692 -0.508455 -1.127361 -1.396856 -0.565745 0.039346 -0.622610 1.644326 -0.320882 -0.687208 0.339657 0.036979 0.538222 0.320031 0.424049 0.474272 0.482332 -0.642043 0.896810 0.919108 -0.233030 -1.921060 1.588132 0.017535 0.386281 1.913996 0.331327 0.714440 -0.846882 -0.930161 0.035575 -0.841434 -0.557402 1.467762 0.014576 -1.415909 0.523003 0.190212 0.077586 -0.678818 0.005183 -0.122892 0.136223 0.980674 -0.706227 -1.571533 0.676289 1.176717 1.236418 0.613997 -0.060982 -0.878616 0.938449 0.526575 0.314059 -1.235672 -0.312459 0.975151 -0.372714 -0.770116 -0.466174 0.271767 -0.219612 -0.710431 -0.583777 -0.919289 -0.473410 -0.368007 -0.210955 0.434058 0.105358 -1.666592 -0.548046 -0.003628 0.743654 0.895132 0.219838 1.096955 -0.235436 -0.016184 0.379042 1.401532 -0.959847 -0.200477 0.441544 0.637134 0.780560 -0.033525 -0.830997 0.864471 -0.335096 0.546449
out -0.144761 0.960591 -0.518975 -0.148776 0.219998 0.444674 0.546328 -0.810506 0.306295 0.580124 -0.038105 -0.925021 0.367194 0.455188 0.254008 0.160788 0.068103 -0.838631 0.072418 -1.000236 -0.745509 -0.387710 0.225859 0.178242 0.635409 0.220562 -0.399639 0.394428 0.877490 -0.074815 0.684196 -0.546587 -0.765153 -0.127634 0.272572 -0.275135 -0.154406 -0.033275 -0.019231 -0.708684 0.141730 -0.330423 -0.024245 -0.457273 -0.289724 0.876426 -0.378019 -0.289087 0.931073 0.829477 0.341271 -0.327935 0.444559 -0.074032 -0.177222 -0.390699 0.521668 -0.624108 -0.964931 0.413109 -0.216552 0.306579 0.616326 -0.133965 0.570768 0.579764 -0.504705 0.435907 0.878502 0.488660 -0.617314 -0.108830 0.142934 0.416091 0.119090 0.113306 -0.182652 -0.079638 -0.409110 -0.207984 -0.177880 0.498555 -0.188302 -0.236267 0.942248 0.970312 0.275292 0.021044 -0.850341 -0.632573 0.213693 -0.435461 -0.514217 0.369856 0.283366 0.468437 -0.435906 -0.198886 0.443721 -0.620703
It 0.637627 0.259368 -0.314297 1.240806 0.519605 -2.109486 0.597365 -1.102083 0.016997 1.918873 1.141857 -0.378665 0.589114 -0.184029 0.528253 1.594694 0.095247 -1.071977 -0.496587 -0.315412 1.356493 -1.071715 0.568167 1.072926 -0.375345 1.130231 1.048305 0.729792 -0.211077 -0.393179 -0.360268 -0.562103 0.599565 -0.484209 -0.318405 -0.735090 -0.010694 0.063905 -1.053064 -0.067481 -0.582689 0.848630 -0.524415 -0.352246 -0.116576 0.789548 -1.474432 0.287494 0.095915 0.637264 0.709235 -1.243898 0.653359 -0.895920 -1.380226 1.311878 -1.267652 -0.953806 -1.673072 0.012496 0.241000 0.445202 0.365805 -0.174738 0.629697 0.109541 0.748601 -0.082361 0.763264 -0.094407 0.286776 0.403409 -1.711431 0.493665 1.012956 0.667549 -0.582049 1.148002 -0.680523 0.715293 -0.575381 0.797448 0.450841 -0.394502 1.201119 -0.036908 -0.617160 1.134776 -0.336856 0.817762 0.927922 0.051736 0.942752 -0.548788 -1.235267 0.852650 -0.375101 1.766903 0.238762 -0.386354
we 0.454808 0.970809 -0.576109 -0.931470 0.273470 -0.095894 0.874724 0.046161 1.516751 -0.279245 0.053177 -0.467642 -0.248341 -0.069478 -0.480433 2.343102 -0.513166 -2.286721 -0.009321 -1.748455 -0.508978 -1.306410 0.334352 1.027523 0.848871 -0.271596 0.037519 -0.033907 -0.055050 -0.165759 -0.906095 -0.752782 -1.162464 -0.336158 1.270247 0.683920 -0.111651 -0.413422 -1.313736 1.745024 -0.615550 -0.940749 -1.546064 0.032692 -0.033303 -0.083249 -0.075030 -1.367289 0.109154 1.412287 0.930106 -1.195423 -1.566499 0.346224 -0.377933 -0.225447 -1.615743 0.341431 -1.081833 -0.690510 -0.153782 1.008591 0.438011 -1.145994 2.761565 1.539378 -1.052303 0.915442 0.695229 -0.721089 -0.386363 -0.225419 -0.917969 0.389066 0.403290 1.140900 1.208344 -0.848602 0.254987 -0.048931 1.404493 -0.423812 -0.072796 -0.788212 1.304743 -0.417270 0.958103 0.482104 1.104322 -0.306805 -0.189643 0.796110 -0.036105 -0.510938 0.954831 0.086131 0.237361 0.416724 0.473646 0.741640
she -0.925702 0.850906 -0.769146 0.628548 1.727478 -1.199081 -0.095439 -1.213532 1.257650 0.966502 0.811171 -0.594722 -1.591480 0.561776 -0.903026 0.924026 0.057290 -0.178585 0.033426 -0.557353 0.722622 -1.958887 0.041454 1.099247 0.090142 -0.290298 0.615227 -0.229663 -0.699520 0.361411 -0.006884 -0.739966 -0.937418 1.937481 0.420649 -0.608620 0.377156 -0.560332 -0.907175 0.072981 -1.270297 0.640196 0.324332 0.092001 0.026761 1.176399 -1.479924 1.763966 0.694290 1.985249 1.879511 -0.877756 1.665263 0.217076 0.209293 0.159897 0.188328 -0.243442 -0.616646 0.278836 0.443901 0.311035 1.458074 -0.282402 1.071835 0.566143 -0.008244 -0.597707 1.975937 0.464756 0.170408 -0.502608 -0.970089 -0.138975 2.619997 -0.671736 0.130032 -0.925911 -0.716611 0.891611 0.857788 -0.154892 0.980414 -0.943519 1.521730 0.158341 0.297785 0.305004 -0.257005 0.075064 -0.400649 -1.199495 0.572660 0.787642 0.041387 -0.479145 -0.128824 0.576112 1.636151 0.056731
said -0.330563 0.346928 1.168520 0.580557 0.492055 0.131403 -0.198369 -0.346356 -0.956653 0.625883 0.240435 0.802180 -1.860181 1.125367 -0.044024 0.045596 -0.487486 0.106489 -0.276171 -0.095819 -0.483737 -0.259677 -0.561384 -0.513075 -0.484433 0.078674 -0.475989 -0.959098 -0.799049 -0.243938 -0.559946 -0.292467 -0.461582 0.372829 -0.788715 1.220044 0.971670 -1.334877 0.178572 0.526078 0.619193 0.367781 0.578325 0.278309 0.213660 -0.349359 -0.842870 0.696453 0.321680 -0.840071 1.109865 -0.593332 0.345401 -0.440886 -0.882294 0.835617 0.202541 0.162686 0.377796 -0.574656 0.806294 0.431141 0.949743 -0.143972 -0.275135 2.003656 -0.431099 0.137353 -0.411076 0.597681 -1.173386 0.162490 0.433034 1.022119 -0.817293 -0.749937 1.003049 0.760840 1.092206 0.169729 1.331706 0.926354 -0.845108 0.035674 -1.454271 -0.121625 -0.051841 -0.133517 -0.038339 -0.739118 -0.288792 -0.463031 -0.000254 0.997934 -0.768811 -0.849952 -0.264604 -1.363828 -0.105012 0.039084
there -0.049470 -0.500074 0.127751 0.541971 1.088514 -1.204564 0.525961 0.366542 -0.329087 1.588259 -0.050545 0.486835 0.286196 0.988728 0.324891 0.764063 -0.312050 -1.403284 0.461648 -0.230645 -0.186699 -0.452400 0.391495 0.074032 -0.042838 -0.098538 1.714261 0.090537 -0.332227 -0.625317 -0.455264 0.464542 -0.882935 0.509343 0.820848 0.052245 -0.130398 -0.394690 -0.851052 -0.934687 -0.127702 0.404229 -0.514748 -0.734057 1.128241 0.604544 -0.526661 -0.289854 -1.027009 0.156113 0.886915 -0.363567 0.276337 -0.898388 -0.883871 0.865468 -0.806651 -0.240387 -1.295275 0.131958 0.194261 -0.456119 0.644571 -2.759706 0.932412 0.817946 -0.356895 -0.016742 -0.049847 1.238982 -0.974616 0.413336 -1.531772 0.840566 1.596478 -0.338428 0.827661 0.969596 -0.586470 -0.194718 0.541347 0.373133 0.531591 -1.442574 0.355532 -0.214172 -0.732457 0.077454 0.745663 1.231105 0.047744 -0.045321 1.199496 0.495970 0.356831 0.403459 0.546346 1.310068 0.582379 -0.650353
up 0.069067 0.756440 -0.615037 -0.192417 0.349020 0.569287 0.738424 -0.767349 0.084961 0.479895 0.352028 -0.411385 -0.067723 0.235572 0.227742 -0.289027 -0.005031 -0.851803 0.526394 -0.615506 -0.933940 -0.653418 0.187998 0.004182 0.023537 0.336614 -0.327431 0.068193 0.847969 0.043490 0.625627 -0.529010 -0.491446 0.168312 0.172227 -0.381081 0.292820 -0.039993 0.075726 -0.315846 -0.166164 -0.477054 0.011348 -0.516535 -0.738431 0.828637 -0.241765 -0.033704 1.137688 0.990592 -0.111068 -0.294475 0.382094 0.342616 -0.333884 -0.144337 0.175255 -0.474054 -1.001686 0.192959 -0.413065 -0.147138 0.847263 -0.068495 0.356947 0.047273 -0.484370 0.472286 0.693753 0.256831 -0.869523 -0.120321 -0.208599 0.053615 0.211508 0.216421 -0.163493 0.031711 -0.516580 0.299146 -0.251718 0.381769 0.378882 -0.070325 0.971600 0.933434 0.449049 -0.454051 -0.567585 -0.667478 -0.447996 -0.154752 -0.636310 -0.062724 -0.184527 0.389073 0.003262 -0.362099 0.479319 -0.424166
In -0.316225 0.093597 -0.728345 0.279355 -0.785072 -0.010594 1.014422 0.353876 -0.885804 0.697721 0.210838 0.292563 -0.425409 0.207428 -0.791794 0.173557 -0.602190 -0.474241 0.224220 -0.502820 -0.178565 1.123395 -1.301261 -0.267363 -0.413767 0.314783 0.391583 0.328167 -0.763306 -1.359089 -0.849812 1.613172 0.275476 -1.307981 -0.178146 0.767523 -0.061967 1.098641 1.102504 -0.269675 0.705573 0.400720 0.852897 -1.402670 0.171003 0.280454 -0.925784 -0.923733 -0.247010 0.243482 0.886280 -0.440949 0.696597 -1.298478 -0.302702 -0.040160 -1.156805 0.906891 -0.297099 -0.327943 0.172114 -1.521229 0.619272 1.192035 0.862379 -1.756597 0.583553 0.648739 -0.471480 -0.195971 -0.867995 2.188118 0.972903 0.164992 -0.510110 -0.415659 0.857794 0.652235 -0.409734 0.343931 -0.355315 0.798312 -0.463966 0.485679 -0.924467 0.477120 -0.233957 0.571625 -0.358344 -0.421338 1.313067 -0.303306 0.086591 -1.146274 -0.816016 1.251060 0.014145 -0.435541 -0.125606 1.174567
: -0.331963 -0.048375 -0.524133 -0.420207 0.189059 0.431114 0.903642 0.665450 -0.407446 -0.518585 0.380936 0.473295 -0.568750 -1.151047 -0.643939 0.976583 -0.698931 -0.835939 0.475596 -0.375123 0.604284 0.438772 -0.564754 0.206015 0.162692 -0.101497 -0.095352 -0.462081 -1.343676 -0.007051 0.461150 0.682342 0.092103 0.001436 -0.012723 -0.107555 -0.248971 -0.858005 0.317265 0.426662 0.596137 -0.199152 -0.297424 -0.541770 0.757281 -0.370473 -0.610974 -0.046669 -0.095110 -1.007921 0.709868 -0.272847 0.042626 -0.726732 -0.241487 0.123474 0.259003 0.461432 0.250703 -0.604491 -0.042186 0.319471 0.151251 1.425212 0.389888 0.625240 0.397417 0.136620 -0.587808 0.115908 -0.815734 0.649701 0.371422 0.133629 -0.371982 -0.395075 -0.532983 0.638184 0.822204 0.233006 0.695363 0.487796 -0.431227 0.964108 -1.152240 -0.608895 1.349029 0.598994 1.220512 0.021543 -0.069843 0.139634 -0.678723 -0.252950 -0.453152 0.420424 0.336196 -0.557168 -0.413493 -0.096593
than 0.214277 -2.133844 1.958841 1.634173 -0.390379 0.109856 -0.035025 -0.549674 2.412016 -0.828617 0.742458 -1.414909 -0.696337 0.445692 1.642141 0.489975 -2.054723 1.249525 -0.619932 -0.142187 0.510613 -0.281153 -1.064739 -0.574471 -2.722103 1.928831 -0.671708 1.259485 -1.486962 -0.037104 -1.037574 1.116282 -0.218164 0.592192 -0.523856 -0.070263 0.408100 1.422418 1.388240 -0.533138 2.235632 0.533064 -2.462368 0.245386 0.531871 -1.089571 -0.521788 0.112305 -0.661187 0.519146 2.530508 -1.326122 -0.892861 -1.229444 0.850798 1.572752 0.540500 0.487541 -0.343622 0.482317 1.403506 -1.391805 -1.085197 -0.754807 -0.204063 0.527993 1.335691 -1.376757 -1.425811 -0.914207 -0.505420 -0.368746 -0.263900 0.695652 0.038530 -0.363808 2.027105 1.908643 -2.193331 0.550674 0.650234 -0.786435 0.462633 0.497163 -0.390475 -0.128634 -1.816613 1.714863 -1.404657 1.876982 1.749901 -0.615684 -0.735282 2.017339 -2.061297 1.202216 0.320164 1.517395 -1.945810 1.668557
them -0.102731 1.040393 -0.282763 0.026548 0.133869 -0.398817 0.226952 -0.273474 1.364332 -0.224620 0.016570 -0.751478 -0.320610 -0.276641 0.495972 0.582311 -0.189654 0.110170 -0.343538 -0.979221 -1.174702 -0.522923 -0.035823 0.204870 0.233468 1.010789 -0.260886 0.800805 1.076408 -0.448699 0.274896 -0.959620 -0.376872 0.663394 0.776213 0.281687 0.420951 -0.271724 0.029171 0.254704 -0.497966 -0.960555 -0.784530 -0.190315 -0.219654 0.848229 -0.592418 -0.403916 0.151587 1.227553 0.183239 -0.444703 -0.342992 -0.123903 0.102441 0.224239 0.568280 -1.044167 0.150006 0.718641 -0.056224 0.790608 -0.335313 -1.299140 0.492062 0.442185 -0.803405 -0.560534 0.109407 -0.497368 -0.513485 -0.681294 -0.702489 0.103452 -0.586773 0.150857 0.374175 -0.560147 0.070935 0.239604 0.814687 0.234068 0.400783 -0.247108 0.647272 0.571907 -0.131325 -0.020447 -0.530579 -0.063790 -0.496230 0.114333 -1.162386 0.973859 0.762208 0.627679 -0.235713 -0.299247 0.287767 -0.732095
into 0.883096 0.796831 -0.715443 -0.477905 0.250126 0.397097 0.807660 -0.426091 0.047883 0.360073 -0.392766 -1.166413 0.227262 0.113214 0.297960 0.113677 0.215399 -0.396739 0.603525 -0.546052 -0.450746 0.462751 -0.029171 -0.418811 0.172719 0.313136 -0.166057 0.263579 0.037548 0.420380 0.216428 0.263900 -1.251183 -0.295961 0.197357 0.541696 0.007784 1.653310 0.710998 -1.240402 0.196252 0.474095 0.116820 -0.510691 -0.178140 0.998253 -0.133476 -0.610090 0.322617 0.511803 0.280577 0.126267 -0.010065 -0.592497 -0.261038 -0.500035 -0.181470 -0.015180 -1.448001 0.756517 -0.247950 -1.066485 0.738537 0.088791 0.455947 0.332730 -0.632108 -0.195433 0.899664 0.501393 -0.891642 0.202022 0.251803 -0.292502 -0.062258 0.294020 -0.323496 0.038395 -0.707702 -0.127346 -0.037586 -0.210016 -0.064354 -0.023553 0.721629 0.796151 0.264846 -0.130865 -1.022211 -0.712610 -0.244220 -0.124192 -0.725994 -0.109662 -0.121843 0.936464 0.378057 0.147283 0.374339 0.226020
no -1.842603 0.075202 -0.596200 2.230033 -0.974734 -1.266593 -0.644292 0.321177 1.260254 0.286335 -0.599011 0.025975 -1.176590 -0.374363 1.398014 -0.347102 0.523225 -0.265133 0.226363 -0.764624 0.357864 -0.081646 -0.042816 0.580923 -0.129790 -0.015598 0.544310 0.360436 0.181829 -1.458620 -0.417695 -1.054291 1.352651 0.483876 -0.791220 0.237277 -1.332571 -0.257751 1.108696 -0.543957 -0.665496 0.208454 -0.811898 1.454009 0.519008 0.361111 -1.022078 -0.530088 -1.040364 0.826229 1.712043 -0.560666 0.522456 -0.563947 -0.172508 0.688717 -0.920175 -1.277265 -0.046422 -1.198366 0.450321 0.156314 0.149586 -0.760421 0.691252 1.159066 -0.499355 0.264006 0.172103 -1.139275 0.460851 0.744695 -0.576645 -0.223909 -0.712185 -1.722394 0.976302 0.198198 0.584367 -0.967661 1.232970 0.515514 0.320752 -0.344067 0.683754 0.087646 -0.288979 -0.476818 -0.069411 1.052589 -0.421315 0.157149 -0.077008 -0.773286 0.166799 0.039990 0.663574 1.339623 0.715743 0.325146
its 1.159434 -0.201761 -0.199681 1.150500 -0.105951 -0.626928 -0.461709 -0.251284 0.866647 0.847742 -0.340474 -0.443669 0.853943 0.116683 0.542306 0.439890 -0.589680 1.049156 0.481097 -0.618361 -0.356034 0.807677 0.837887 -0.126887 -0.491226 -0.159340 -0.515139 -0.215850 0.259573 -0.289827 0.701688 -0.088806 0.587226 0.516547 0.254757 0.330124 -0.150776 1.523268 -1.119423 0.053552 0.191123 -0.156025 0.212674 0.246010 -0.418920 0.046282 -0.081400 -0.135066 -0.487458 0.923376 0.560627 -0.042091 0.714414 1.144081 0.645526 0.193015 -0.898522 -1.340118 -0.461077 -1.330375 0.377932 -0.384852 -0.798934 -0.012152 -0.408210 -0.781331 0.125508 0.763200 0.923608 -0.331870 1.001305 0.062155 -1.194330 -0.000835 -0.662746 0.713487 -0.737223 -0.596446 0.157452 -0.054024 -0.200225 -0.167356 -0.016914 -0.748385 0.055187 -0.395236 -0.584936 0.030079 0.003596 0.045640 0.701928 0.196428 -0.041463 -0.782993 -0.379659 -0.092883 -0.823743 0.056233 0.029815 0.651893
about -0.062024 0.115129 0.155605 -0.081197 -0.538559 0.036097 0.722930 -0.226774 0.144729 -0.187378 0.480407 -0.874017 -0.975520 -0.117801 0.099166 0.084801 -0.311166 -0.671474 -0.095241 0.152170 -0.586819 -0.925536 -1.015503 0.735173 0.363799 -0.132300 0.529242 0.707117 -0.251531 -0.205243 -0.252361 0.457948 -0.184380 0.132039 0.288284 -0.561934 -0.430347 -0.774948 0.681256 -0.593881 0.144589 0.097089 -0.561688 -0.346647 -0.071795 -0.223191 -0.696590 0.016727 0.029177 0.167685 0.921003 -0.428028 -0.494465 -0.348235 0.168465 -0.232565 1.012614 0.255800 -0.022770 0.491725 0.658950 0.172438 0.546996 -0.008142 0.204762 -0.541570 0.486627 -0.358887 -0.904566 0.488550 -0.124753 0.423458 0.178271 0.298654 0.431983 -0.533923 0.400915 1.194538 -0.682282 -0.508375 0.618069 -0.334802 0.479702 0.458577 -0.281553 -0.157455 -0.545148 0.703453 -0.179145 -0.171247 0.098501 -0.263599 0.114046 0.835756 -0.390311 0.389549 -0.149032 0.424903 0.238397 0.819667
so 0.833859 0.110367 0.725462 1.031408 -0.174334 -1.692347 -0.404549 -0.477083 0.746888 0.250264 0.008927 -1.141869 -0.869921 0.262331 -0.135578 1.197190 -0.058153 -0.052100 -0.288757 -1.003101 0.467274 -1.064317 -0.666646 1.055827 0.150202 0.614420 0.246773 1.176313 -0.514212 -0.073169 0.309680 -0.101788 -0.473225 0.547267 -0.388983 -0.357299 0.649148 0.027564 -0.954135 0.754055 0.531857 1.411677 -0.016305 -1.402551 0.092351 0.438974 -1.025796 0.020629 -0.119959 0.742313 0.232067 -0.063340 -0.476260 -0.291049 -0.573188 0.323420 -0.025698 -0.375501 -1.243130 1.144199 0.350191 -0.351778 0.421929 -0.536729 -0.260039 0.402021 -0.651561 0.084823 -0.063702 -0.127891 -0.513816 -0.457337 -1.061890 0.327268 0.695316 0.507013 0.345158 1.047696 -0.107516 0.191340 0.173389 -0.021706 -0.101405 -1.270672 0.276796 -0.245067 0.066717 0.232194 -0.841669 0.231964 0.494011 -0.481368 -0.508875 0.696403 0.284744 0.628410 -0.781509 0.233871 -0.308584 0.301455
when -0.320197 0.286116 0.285130 0.699606 0.303331 -0.788060 1.087408 -0.281142 -0.374546 0.521315 0.569150 -0.209631 -0.673180 0.354408 0.558785 -0.102222 -0.794031 -0.756299 0.332477 -0.741430 -0.619429 -0.803052 -0.841887 -0.081608 -0.124311 0.495464 0.290548 0.892042 0.141018 -0.508971 0.601637 -0.321132 0.027137 -0.108746 -0.368340 -0.368923 0.178835 -0.082012 0.192841 -0.305765 0.366697 0.127063 -0.033448 -1.360888 0.267915 0.947504 -1.647510 -0.454394 0.018691 0.783637 0.140141 -0.399279 0.798650 -0.590636 0.448174 0.762860 0.486282 -0.309756 -1.121530 0.441261 0.404497 -0.681765 0.380441 -0.086303 0.077563 -0.654866 -0.231989 -0.021668 -0.603707 -0.252256 -1.063449 0.575179 -0.832455 -0.117263 0.953453 -0.546394 0.175833 0.149051 -0.162089 0.417334 0.008545 0.982258 0.380030 0.313231 0.234591 0.495641 0.292166 -0.345393 -0.614997 0.065553 0.505071 0.069764 0.056967 -0.592375 -0.798631 0.645273 -0.285037 -0.170814 -0.081052 0.234119
can -0.296853 -0.255622 1.014950 -0.647073 -0.757117 0.591400 -1.939531 1.020575 -0.512931 0.881115 -0.239190 -2.297398 1.628118 -0.804843 0.711376 -0.988437 0.576782 -1.308468 -0.177457 0.740594 0.141432 -1.157016 0.390787 0.802502 0.299265 0.839922 -0.115785 1.016729 -0.862280 0.126219 -0.162273 -0.687310 -0.018730 -0.701272 -1.138004 -0.697950 -0.242034 -0.069009 -0.254902 -0.072301 0.567904 -1.174213 -1.761322 -0.105223 1.609750 -1.262248 1.067814 0.308034 -1.364215 -1.184681 -0.197869 0.768016 -1.882061 -0.550325 -0.646519 -0.531444 -0.324012 0.866908 -1.259855 1.518951 0.135331 0.199769 -0.485846 -0.608101 -0.736311 0.690423 -0.189122 0.247057 -0.944208 -1.007205 -0.615827 -0.997069 -0.120589 1.746669 -1.004246 -0.402739 0.120767 1.319224 0.749600 -1.795885 1.052461 0.084941 0.320041 -0.262880 -0.666708 0.249183 -0.418219 0.240618 -0.198181 -0.518084 -0.487522 -0.699603 -1.165756 -0.715542 -0.468384 0.284466 1.053674 -0.599315 -1.204950 -1.180695
only 0.036321 -0.535537 -0.564050 0.369900 -0.559490 -0.820212 0.639495 0.077822 0.460003 0.322777 0.319623 -0.009545 -0.306288 -0.668147 0.200977 -0.341781 0.138215 -0.546937 0.117269 -0.945478 -0.235376 -0.401531 -0.128732 0.613156 -0.234103 0.460389 0.801209 0.449686 -0.042293 -0.320765 0.683056 0.050577 1.525670 -0.185737 -0.347106 -0.302720 0.027047 -0.412465 -0.928253 -0.686790 -0.255802 0.262773 -0.531974 0.230198 -0.530529 -0.019674 -1.564685 -0.454267 -0.335725 0.376963 0.556227 -0.249232 0.285178 -0.661787 -0.133016 -0.580354 -0.930643 -0.394406 -0.121250 0.165004 0.223988 -0.117479 0.359627 -0.355259 0.757114 0.126176 -0.730301 0.498114 -0.224643 -0.048486 -0.163519 -0.472240 -0.945244 0.475432 0.269837 0.375348 0.277786 0.241184 -0.322023 -0.077260 0.417726 0.498383 0.322778 -0.389257 0.313033 -0.478542 -0.754426 0.615484 0.168935 0.583263 0.631659 0.713017 -0.171268 -0.680429 -0.274916 0.004659 0.093637 0.217985 1.098665 0.354842
other 0.046145 0.163202 -1.542364 0.113592 -0.770772 -0.437936 -0.217963 1.293167 0.565471 -0.412375 -0.826008 -0.567066 0.464649 -0.245448 -0.760224 0.642379 0.404284 -0.668167 0.669752 0.018886 0.072458 0.684385 0.216484 0.414783 0.481227 0.184651 0.399056 0.524675 0.222794 -1.578730 0.614282 0.396818 0.655554 1.002342 0.868478 1.101050 -0.090113 -0.396160 -0.338400 -0.647380 -0.687981 -0.477321 -0.030133 -1.598497 0.137981 0.428716 0.026990 -1.007609 -0.677742 0.571776 -0.522301 1.382823 -0.404995 -1.459218 -0.381128 0.288337 -0.569473 0.164794 0.601175 -0.462303 0.178856 -0.363594 0.066606 -1.554452 -0.437082 0.403994 -0.503087 -0.344971 -0.056505 0.273024 -0.835849 -0.087342 -0.362424 -0.268204 -1.065346 0.325316 0.566668 -0.453106 -0.149958 0.012341 -0.185601 -0.254254 0.559239 -0.386363 -0.325184 0.767274 -0.202910 -0.409837 0.903636 0.413573 -1.752214 0.160827 -0.094545 0.026071 1.281599 -0.102868 -0.015675 -0.540931 0.130941 -0.413064
! 0.776814 0.238203 0.262450 0.347205 1.467943 -0.331680 2.230838 -0.338173 -1.238310 -0.979731 1.320142 0.136421 -0.637681 0.718465 1.334528 0.953351 -0.875953 -0.095403 -0.659607 -0.075647 -1.503533 -0.695976 0.053217 -1.311309 1.353851 -0.425463 -1.144937 0.234608 -0.798162 -0.586537 0.047860 1.156087 0.469368 0.493938 -1.023371 -0.470030 1.300509 -2.351768 0.764797 -0.563567 2.326128 1.011652 -0.171236 1.480548 1.478487 -1.027140 -0.069657 -1.050956 2.040872 -0.862804 2.535962 -1.822384 -0.612410 1.260618 -2.320078 0.742133 0.782543 -1.022098 -2.323603 -0.848158 0.453841 2.175913 -0.726528 0.335088 0.204573 2.068949 0.992409 1.061532 0.281371 0.681646 0.157129 -0.070379 1.585395 0.336694 0.130043 -0.826917 -0.193474 0.194340 1.396717 -0.092679 -0.679161 -0.868709 -0.253915 0.993942 -1.202456 -0.367706 -0.349137 -1.132702 0.010109 -1.511250 -1.531389 -1.435647 0.903050 1.776871 -0.857277 -0.001845 -0.040950 0.818134 -0.095196 0.403885
could -1.260824 0.315338 1.004535 -0.689129 0.389890 0.513576 -1.564068 0.799229 0.356306 1.168886 0.450637 -2.939542 0.747520 -1.124790 0.579456 -0.659796 -0.163618 -0.752278 -0.109256 0.426676 -0.291025 -1.894223 -0.080854 0.169774 0.137166 0.995728 -0.097675 1.221686 0.066476 -0.123647 0.562064 -0.778474 -0.003063 -0.235731 -0.586376 -0.714379 -0.064776 -0.211287 -0.881361 0.041356 0.144791 -0.921717 -1.820680 -0.187614 0.659615 -0.479274 0.566085 0.781673 -0.111073 -0.712633 0.052408 0.496620 -0.787254 -0.852789 0.095061 -0.858974 0.418369 0.411155 -0.404551 2.148254 0.816589 -0.023017 0.257043 -0.471234 -0.205791 0.228993 -1.132965 0.397321 -0.675675 -1.037165 0.003243 -1.570603 -0.939125 0.971080 -0.072953 -0.232599 0.402413 0.954564 -0.464744 -1.903975 1.768641 0.495075 0.510171 0.295951 0.230388 0.814086 -0.799953 0.772745 -1.273493 -0.794123 -0.660241 -1.041719 -0.865919 -0.232285 -1.196117 -0.641712 0.730336 -1.272481 -0.255401 -1.062442
time -0.663240 -0.034598 0.620299 0.266980 -0.000863 -1.219036 -0.321550 -0.585709 1.161017 0.682322 0.815388 0.010704 -0.532745 1.356192 -0.513408 0.992163 -0.201220 -0.663787 -1.049439 -1.884592 -1.222601 -0.727869 -0.142638 -0.156206 -0.338085 1.034943 0.405157 -0.073191 -0.274225 -1.072232 0.229434 -0.318956 0.399301 -0.052870 -0.076626 -0.005802 0.152334 -0.673817 -0.869280 0.370498 0.208974 -0.038451 -0.263003 -0.592444 0.514267 0.249494 -0.376615 0.148913 0.636002 0.654051 0.710120 0.054857 0.669822 0.079880 -0.337496 0.771473 0.452150 -0.226940 -0.668265 -0.472292 -0.340745 -1.021857 1.089947 -0.906459 0.278638 -1.243977 -0.157292 0.683347 -0.686284 -0.559716 0.431186 0.010002 -0.383863 0.288938 1.332266 0.390929 0.599973 0.715427 -0.833528 0.231765 -0.502286 -0.355955 0.532240 0.011619 0.424956 -0.020251 0.504592 -0.616646 -0.077289 0.242387 0.591520 -1.120463 -0.870187 0.651612 -0.229033 0.120829 0.257234 0.928090 -1.350492 0.472926
if 0.235474 -0.408510 -0.081298 0.913088 0.671731 -0.818700 0.537154 0.204557 -0.119235 0.368218 0.436986 -0.026082 -1.115037 0.025561 0.450474 0.531516 -0.121491 -0.873998 0.243213 -0.920027 0.224191 -1.242865 -0.774128 -0.227635 -1.203454 0.385268 0.325754 1.794927 -0.709793 -0.687310 0.431260 -0.793848 0.256297 -0.206470 0.007566 0.096403 0.488629 -0.510700 -0.295983 -0.276206 0.449175 0.435520 -1.017360 -1.367420 0.484024 0.834746 -2.012490 -0.606670 -0.061342 1.051206 0.568520 -0.212954 -0.831022 -1.515166 -0.236896 0.439712 -0.852047 0.021954 -1.079984 0.333385 0.775362 -0.223425 0.458887 0.177636 0.239483 1.190531 -0.623627 -0.338980 -0.585481 -0.247710 -1.654473 -0.122356 -1.715626 0.354944 0.377693 0.181591 0.613144 0.404276 -0.109438 0.261230 0.274053 0.135313 -0.302711 -0.376520 0.158280 0.859918 0.234801 -0.081826 -0.526443 -0.027539 0.605667 0.493741 -0.549539 0.355543 -0.334062 0.469697 -0.105911 0.157253 -0.510267 0.449813
what -0.014646 0.223677 0.133675 1.310081 -0.419696 -1.250072 0.323064 -0.808509 0.289173 0.153815 -0.216041 0.250782 -0.921641 -0.559287 0.501590 1.131578 -0.090116 -1.080307 -0.212081 -0.877799 0.253616 -1.548547 0.094429 0.898838 -0.044437 0.114003 0.116821 0.996615 0.453431 -0.217323 0.191988 -1.652126 0.199298 -0.148160 0.436662 -0.250362 -0.676890 -0.608152 0.006579 1.099053 -0.373169 0.155854 -0.624875 -0.585986 0.782456 0.976767 -2.055208 -0.163920 -0.907894 0.290117 0.868079 -0.988912 0.148083 -0.289513 0.218904 0.995180 -0.240452 -0.835377 -0.626457 -0.720140 0.489100 0.653983 0.227374 -0.604105 -0.006882 0.844060 -0.284986 -0.860788 -0.903599 -0.315893 -0.582460 0.623699 -1.889051 0.752223 -0.286537 -0.041444 0.408141 0.342774 0.263444 0.210003 0.707146 0.806400 -0.280352 0.467004 0.075640 0.462043 0.434654 -0.567318 0.266085 -0.097773 0.524427 0.597115 0.153817 0.049811 -0.458215 0.367617 -0.859824 0.621434 -0.057372 -0.082322
some -0.576488 0.148837 -0.676801 0.725407 -0.065907 -0.285712 -0.075827 -0.053041 1.069707 -0.674513 -0.117882 -0.436340 0.424978 0.215308 -0.051207 0.298363 0.172627 -0.204048 -0.054113 -1.216350 -0.106838 -0.092551 0.089061 0.526870 0.021210 0.665660 -0.204832 0.895595 0.217403 -0.763143 -0.098326 -0.630335 0.448250 0.080954 0.327605 0.228756 -0.056227 0.089545 -0.085632 0.370373 -0.083870 -0.399557 -0.582440 0.000385 0.527016 0.911887 -0.657160 -0.699677 -0.852635 1.278539 0.661481 -0.726598 0.147085 0.048122 0.147434 0.169858 -0.271483 -0.275495 0.102937 -0.478824 -0.309598 0.293436 -0.562891 -0.233089 0.298992 0.337917 -0.336271 -0.122756 -0.113602 -0.533404 0.035648 0.152016 -0.133946 0.515016 -0.369763 -0.255229 0.728870 -0.518302 -0.090482 -0.079601 0.333407 0.137067 0.005662 -0.353370 0.425989 0.411917 -0.453578 -0.054341 0.005070 0.445992 0.086282 0.027904 -0.825885 -0.392513 1.017624 0.564419 -0.044727 0.703515 0.263353 -0.053026
But -0.382028 0.523995 0.070929 0.524716 -0.051529 -1.132066 0.546153 0.121983 0.275770 1.253686 0.370469 -0.256415 -1.244239 -0.268478 0.007186 0.760388 -0.374896 -0.945367 -0.463911 -1.197109 0.116738 -0.895159 -0.825411 0.497298 -0.410175 0.596882 0.773269 0.699502 -0.187184 -0.875356 -0.064873 -0.396475 0.389007 -0.576600 -0.412503 -0.338346 -0.083091 -0.720387 -0.180972 0.236807 -0.002718 -0.082698 -0.761221 -0.580354 0.223564 0.265866 -1.692465 0.021084 0.184713 0.344932 1.138077 -0.812476 0.008918 -1.108810 -0.448436 0.143272 -0.269625 -0.579966 -0.491984 0.335416 0.018184 0.189083 0.669600 0.143917 1.167685 -0.681435 0.023430 0.352520 -0.355330 -0.364955 -0.560272 0.745533 -0.926704 0.283392 0.490006 -0.159756 0.228157 0.785102 -0.098046 0.196214 0.588495 1.126402 0.023279 -0.462196 0.050154 0.010970 0.212968 0.764152 -0.446898 -0.092956 1.429028 -0.002383 -0.375043 0.302597 -0.922366 0.716427 -0.426355 -0.066027 -0.037597 0.258505
A 0.175775 -0.450740 -1.476393 0.895065 0.329517 0.501940 0.611992 -0.766205 -0.900249 -0.048803 0.582869 1.230785 0.143029 0.473055 0.336802 0.180489 -0.812520 0.504601 0.630299 0.098618 1.380779 0.050900 0.719745 -0.047657 -0.537502 0.267665 -0.389001 -0.686311 -0.359105 -0.050035 0.246178 0.439883 0.366905 -0.179367 -0.169353 -0.601717 -0.064732 0.699620 -0.251749 -0.513713 0.527983 0.018526 0.187573 0.212778 -0.164952 0.432315 0.146521 -0.003003 -0.412167 0.393741 0.487370 -1.262416 1.289138 0.412473 -0.274065 0.940820 -0.011559 0.145243 0.402268 -1.308056 -0.365558 0.100825 -0.506532 1.238556 -0.161883 0.370017 0.751169 -0.160657 0.761199 0.408145 -0.156269 0.382044 -0.013017 0.227026 0.012446 -0.331231 -0.399847 0.159711 -0.121907 0.836328 -1.326912 0.731445 -0.190846 0.538283 -0.153879 -0.195682 -0.248386 0.520373 0.397513 0.920967 0.930120 0.669466 0.219317 -0.177175 -0.478054 0.638104 -0.302286 0.236807 -0.099581 0.224636
two -0.451234 -0.255475 -0.804422 -0.189467 0.170961 0.620082 0.928316 0.268219 0.145050 -1.175528 0.363795 0.739882 -0.074327 0.702488 -0.034103 -0.292727 -0.582006 -0.742770 0.325558 -0.320622 -0.788659 0.256606 -0.351179 -0.110818 -0.460875 0.415926 0.285480 -0.074343 0.064164 -0.914512 0.249394 0.491292 0.440432 0.436880 0.441876 0.159560 0.160494 -0.114412 0.273595 -0.299910 0.247681 -0.543697 -0.591587 -0.246631 -0.184627 -0.089898 -0.416671 -0.452732 -0.226666 0.829979 0.084712 -0.322256 0.622339 -0.310963 0.456286 0.399735 0.586580 0.351762 0.695046 0.332674 -0.236395 -0.659606 -0.540818 -1.346936 0.286535 -0.128901 -0.406185 -0.045714 -0.239448 -0.014859 -0.512086 0.515558 0.419293 0.334967 0.054517 -0.585273 1.470678 -0.279024 -0.210409 0.284092 -0.048843 -0.348187 1.148053 0.028089 0.655350 0.333566 -0.502314 -0.363091 0.582501 0.671091 -0.584035 0.248661 -0.611998 -0.072413 0.513542 0.215596 0.433513 0.066123 0.363082 0.318890
any -0.660233 -0.538021 -0.723783 1.468800 -1.054770 -0.685531 -1.253492 0.062999 1.186302 -0.078909 -0.786752 -0.637427 0.739410 -0.089594 0.907035 0.437040 0.080842 0.287057 -0.037268 -1.139585 0.970587 -0.521546 0.313891 0.486982 -0.476631 0.940222 -0.783919 0.351280 -0.123192 -0.647624 0.309227 -0.812156 1.105803 -0.484823 -0.405932 0.477510 -0.538899 0.524054 -0.524331 -0.214233 -0.192417 -0.585232 -1.509733 0.454280 0.701247 0.330403 -0.196204 -0.863309 -0.847261 0.932360 1.084001 -0.335534 0.094250 -0.584701 0.014182 0.244125 -1.102949 -0.014225 0.305990 -1.227260 0.105512 0.143868 -0.382951 -0.363566 -0.396149 1.118896 -0.836748 -0.522893 0.029859 -1.253146 0.210842 -0.608778 -0.552026 0.240815 -0.869888 0.114119 0.717297 0.004221 0.027413 -0.022338 -0.041422 0.117207 -0.420367 -0.100879 0.484080 0.399833 0.106228 -0.248229 0.046531 0.869890 0.554917 0.312766 -0.458269 -0.089393 0.424470 -0.153166 0.441939 0.614260 -0.973449 0.327091
may -0.516272 -0.361420 0.402840 -0.342674 -0.243936 0.758421 -2.278645 0.915516 -0.251645 0.135950 0.098021 -2.243568 1.687714 -0.921172 -0.040544 -0.644815 0.654350 -1.118748 -0.088318 0.130531 0.435894 -0.897445 0.205297 0.254033 -0.014680 1.093004 -0.398455 1.070976 -1.052791 -0.126737 -0.072861 -0.261317 0.741040 -0.576752 -0.908815 -0.310486 0.385559 -0.063663 -0.745453 0.522729 0.597569 -0.457816 -1.162359 0.030340 1.387715 -0.909864 1.003275 0.213129 -0.266821 -1.052038 -0.132554 0.737813 -1.090526 -0.896805 -0.993656 -0.909921 -1.077213 1.207388 -0.464069 1.055029 0.150589 -0.001909 -0.197936 0.528647 -0.766779 0.960034 -0.895514 0.743897 -0.833375 -0.833734 0.043449 -1.345439 0.146217 1.405164 -0.772881 0.164862 0.696271 1.349183 0.368138 -1.831255 1.018991 -0.091777 -0.089385 0.182877 -0.147475 0.864355 -0.744959 0.411470 -0.008286 -0.710340 -1.237350 -1.172691 -1.311263 -1.305163 -0.336942 -0.333834 1.077672 -0.323896 -0.993755 -0.798013
do 0.710517 0.070207 0.276824 -0.201845 -0.878356 -1.404423 -0.034191 -0.149471 1.165677 0.066455 -0.212395 -1.449044 -1.440938 -0.921604 0.026343 0.272834 0.369328 -0.509323 -0.836725 -0.946160 -0.161484 -0.652681 -0.447098 1.217428 -0.101159 -0.064646 0.410162 1.431310 0.070399 -0.463822 -0.208017 -1.089802 0.859537 -0.091277 -0.334039 0.616638 0.502207 -2.511358 -0.368819 -0.026305 -1.149534 -0.367267 -0.976319 -0.070092 -0.480819 -0.785290 -1.282336 -0.077438 1.185653 0.746251 0.339049 -0.294161 -1.763375 -1.198851 -0.273161 -0.373676 -0.099317 -0.284125 0.020442 0.238566 0.347670 1.352701 0.360380 -0.259179 0.382148 0.620366 -0.644202 -0.888333 -0.265263 -0.223704 -1.440866 -0.412313 -0.596737 0.084988 -1.001997 0.398152 -0.037088 0.507294 0.899593 0.436726 0.828906 -0.274074 -1.012717 -0.102922 -0.337977 -0.431573 -0.422870 0.558910 0.237627 -0.362953 0.205034 -0.070342 -0.453908 1.493675 0.334178 0.395716 -0.652604 -0.418614 -0.597070 0.261354
first -0.443531 -0.442162 -0.123618 -0.447074 0.375015 -0.243029 0.669491 -0.679469 -0.328023 0.497148 0.654741 0.213529 0.384079 0.434910 -0.427127 0.029390 -0.148751 -0.611101 0.167728 -0.715948 -0.862366 -0.013243 -0.157771 0.137310 0.023606 0.111286 0.134043 0.078303 0.194888 -0.674410 0.309280 0.309785 0.284209 -0.448914 0.058246 -0.264700 0.057240 0.058693 -0.294078 -0.011450 -0.304789 0.447790 -0.002317 -0.227077 0.241246 0.133970 -0.439958 -0.028300 0.604814 0.151070 0.575941 -0.195871 1.394042 -0.068953 0.137171 -0.091893 0.236162 -0.193742 -0.369475 -0.237283 0.052646 -0.450077 0.383343 -0.277083 0.260748 -0.933073 -0.348209 0.862124 0.113394 -0.163862 -0.070139 0.993368 0.372281 -0.088460 0.409862 -0.174949 0.088140 -0.136500 -0.332335 0.463306 -0.307284 0.246412 0.550029 0.520993 0.672470 -0.338560 0.301918 -0.517852 0.473809 -0.198914 0.177431 -0.772978 0.165130 -0.758101 -0.579690 -0.240732 0.008829 0.152145 -0.055765 -0.052851
like 0.418072 0.374516 -0.062622 0.052094 0.165501 -0.207412 0.255142 -0.248654 -0.310089 0.203115 0.179794 -0.016478 -1.015836 0.184705 0.444244 0.063523 -0.237550 -0.498304 -0.215412 -0.275648 -0.510530 -0.643106 -0.361745 -0.327282 0.198202 0.572939 0.729090 0.249855 -0.116560 0.453062 -0.085352 -0.051676 -0.396172 0.015413 0.114438 -0.139605 0.682987 -0.291337 0.020508 -1.110613 -0.499099 0.361334 -0.537000 0.013080 -0.418066 -0.058864 -0.291166 0.350116 0.479181 0.158209 0.576459 -0.326005 -0.807448 -0.523985 -0.660194 0.239218 0.502362 0.246422 -0.876233 0.990051 -0.085292 0.161483 0.565950 -0.502779 0.198415 0.320398 -0.172435 -0.994543 0.347268 0.672310 -1.034941 -0.492480 -0.589081 0.369113 0.656188 -0.146216 0.085855 0.089254 0.216661 0.370281 0.148245 0.238852 -0.235635 -0.366418 0.084685 0.419383 -0.315936 0.455683 -0.860768 -0.277166 0.248020 0.107678 0.223223 1.266241 -0.265366 0.660358 0.303920 0.128670 0.241562 0.184653
these 0.257995 -0.250584 -0.505610 0.124733 -0.235096 -0.460867 0.202807 0.325788 0.550835 -0.316247 -0.315542 0.236285 0.327201 0.193002 -0.364284 0.820830 -0.197352 -0.477304 -0.084023 -0.772001 -0.147776 -0.101842 0.394789 0.736359 0.382911 0.073433 0.247404 0.698155 0.253664 -1.087890 -0.026487 -0.142364 0.222167 -0.002883 0.600415 0.647020 0.141522 -0.289321 -0.783185 0.801695 0.181181 -0.243024 -0.503774 -0.765885 0.603462 -0.040357 -0.442495 -0.852242 -0.868014 0.723282 -0.463120 -0.119753 -0.308848 -0.449723 0.076221 0.419072 -0.283430 -0.045256 0.569346 0.200038 0.133731 0.258073 -1.036802 -1.702067 0.514466 0.476938 -0.709539 -0.237607 -0.398839 -0.244501 -0.458593 -0.057565 -0.433772 0.806609 -0.699871 0.263324 0.871160 -0.261208 0.355592 0.133067 0.204932 -0.329421 0.077232 -0.561928 0.065103 -0.429938 -0.548601 -0.359382 1.023884 0.590926 -0.069385 0.503278 -0.328201 -0.021379 1.510689 0.417740 -0.424040 0.023154 -0.199384 -0.273375
over 0.141960 0.456714 -0.465192 -0.062980 0.105427 0.199695 0.682646 -0.403701 -0.064930 0.356541 0.431410 -0.608588 -0.113728 0.278926 0.241160 -0.197718 -0.346624 -0.345339 0.758916 -0.311220 -0.766341 0.018421 -0.298442 -0.422477 0.193183 0.448073 0.043463 0.250690 0.330427 -0.268931 0.368507 0.404183 -0.446625 0.019067 0.158172 -0.009633 -0.006148 0.673602 0.449881 -1.170655 0.045695 0.060480 0.179378 -0.399663 -0.397680 0.671192 -0.047889 -0.443022 0.625076 0.811126 -0.188131 -0.058645 0.487330 -0.078991 -0.187950 -0.057969 0.395726 -0.155145 -0.690822 0.411305 0.048607 -0.812859 0.672759 0.055072 0.193755 -0.705707 -0.346923 0.218289 0.327171 0.232350 -0.404625 0.326349 0.153789 -0.494669 0.440354 -0.020620 -0.090636 0.231835 -0.721903 0.110602 -0.143301 -0.149541 0.610337 0.291437 0.618482 0.493192 0.154302 -0.462177 -0.635045 -0.385091 -0.219743 -0.399980 -0.131398 -0.232902 -0.219643 0.470410 0.265070 0.138338 0.296252 0.337978
such 0.027945 -0.276280 -1.301149 0.317692 0.572395 -0.690855 -0.926367 0.245733 0.879914 0.256962 -0.259765 0.379833 0.201806 -0.030293 -0.230015 0.727759 0.205334 -0.127231 -0.117324 -0.805192 1.175602 -0.164535 0.766166 0.824104 -0.486927 0.112371 0.327956 0.975463 -0.845075 -0.666151 -0.126494 -0.314836 0.371898 -0.440409 -0.147712 0.241164 0.195758 0.841940 -1.417052 0.687908 -0.132646 0.546624 -0.600639 -0.249990 0.422571 -0.071313 0.072328 -0.300622 -1.151743 0.625810 0.020706 0.486677 -0.570538 -0.295866 -0.852104 0.667627 -1.455625 0.267786 0.276592 0.285632 -0.032621 -0.518045 -0.427981 -0.175282 0.125641 0.740939 -0.343544 -0.276849 0.714438 -0.790626 -0.380459 -0.481799 -0.919662 0.998001 -0.586065 0.564830 0.413818 -0.348616 -0.039610 0.252169 -0.469144 -0.286892 -0.832266 -0.972857 -0.113451 -0.263666 -0.082795 -0.118015 0.406366 0.389636 -0.084030 0.216108 -0.652093 -0.617894 0.782088 0.110698 0.083350 0.423344 -0.837587 -0.018602
This 0.687945 -0.585944 -0.628574 1.493894 -0.224483 -1.263317 0.298903 -0.623009 -0.217141 1.272826 0.598035 0.113904 0.498258 -0.352465 0.506313 1.024316 -0.261163 -0.385635 0.197807 -0.114024 1.385639 -0.332899 0.742718 0.372623 -0.669753 0.530361 0.194351 0.178094 -0.359853 -0.661047 0.120577 -0.073988 1.177619 -0.500167 -0.475126 -0.327148 -0.431453 0.676805 -0.695005 -0.565269 0.021981 0.435292 -0.160574 -0.108703 0.023182 0.492580 -1.047232 -0.216691 -0.389811 0.491828 0.595496 -0.912559 0.827161 -0.570701 -0.436465 1.106158 -1.316477 -0.371891 -0.870970 -1.377336 0.438932 0.385464 0.004511 0.539664 0.267383 0.183162 0.741617 0.073091 0.557553 -0.324151 0.110310 0.311624 -1.298326 0.146116 0.137640 0.373700 -0.552710 0.563470 -0.058418 0.516535 -0.892789 0.762151 0.203217 0.221331 0.312638 -0.123658 -0.511477 0.487205 0.204444 0.939876 1.235150 0.602771 1.034707 -1.021796 -1.043541 0.486274 -0.533347 1.052289 -0.140057 0.381123
me -0.538882 0.395057 0.170100 -0.063560 0.723661 0.100892 0.247907 -1.119427 0.397591 -0.060149 0.655429 -0.177131 -1.132199 0.269925 0.532971 0.477180 -0.501645 -0.250309 -0.434948 -0.503538 -0.480427 -1.510205 0.432354 0.259029 0.418420 0.149725 -0.247651 -0.423046 0.249410 0.265190 0.324495 -1.318644 -0.261567 0.686499 0.074467 -0.569242 0.307181 -1.587948 -0.373635 0.029574 -0.964022 -0.509427 -0.492637 0.907655 -0.288897 0.029624 -0.185872 0.843481 1.104982 0.558305 1.036252 -0.907361 0.026836 0.805856 -0.303990 0.480606 1.202439 -0.417994 -0.494530 -0.320840 -0.090228 1.459280 0.584746 -0.438471 0.257144 1.067426 -0.273656 -0.482083 0.778328 -0.134247 -0.421483 -0.747758 -0.404381 -0.051398 0.458505 -0.500122 -0.396384 -0.274941 0.689773 0.320862 0.495686 0.271862 -0.083122 0.549348 0.410152 0.199772 0.503532 -0.094005 -0.167830 -0.355698 -0.281270 -0.251999 -0.043617 1.303812 -0.576446 0.032455 -0.308293 0.034912 0.187455 -0.266808
my -0.313223 -0.015260 0.178585 -0.215822 1.191614 -0.233072 0.175807 -0.781732 -0.427432 -0.252017 0.574127 -0.096893 0.384844 0.580241 1.432155 1.106724 -1.290583 0.182985 0.479481 -0.708790 -1.591968 -0.602960 0.049591 0.259756 1.115642 0.376956 -0.225872 -0.001942 0.642375 0.218955 0.033413 -0.434385 -1.096623 -0.428487 1.264702 -0.460127 0.474758 -0.601151 -0.523546 -0.071149 -0.907428 -0.565106 0.178681 0.400640 0.585966 0.783913 0.273841 0.067230 0.342385 0.971071 1.179359 -0.465993 1.019788 0.942113 -0.312509 0.748401 1.150399 -0.177207 -0.493357 -0.391813 -0.304966 0.999142 -0.452345 -0.352300 -0.286999 0.448689 -0.746747 -0.553546 1.010069 -0.402717 -0.126846 -0.374588 -0.526566 -0.279712 0.588984 -0.957643 -0.279594 -0.505598 0.933810 0.367780 0.481000 0.751423 -1.675062 -0.288777 -0.323955 0.066258 0.354839 0.312941 0.045586 -0.550898 0.061220 -0.484424 0.999524 0.643964 -0.233973 0.212597 -0.856002 -0.076462 -0.758428 -0.486993
man -0.262692 0.614101 -1.345355 0.089375 0.677406 -0.239015 0.414484 -0.490275 -0.106613 0.312706 0.076397 0.813523 -0.323645 -0.068142 0.452903 0.310911 -0.473103 -0.122405 -0.517170 -0.338608 0.358833 -0.613033 0.545716 0.085575 0.376857 0.556023 1.064441 -0.457065 -0.043318 0.195452 0.621013 -0.582152 0.427507 0.407327 0.280851 -0.624126 0.422655 -0.335124 -1.193718 -0.814099 -0.927462 0.995974 -0.631024 0.661008 -0.558570 -0.226373 -0.443806 0.586487 0.050424 -0.731712 0.970775 -0.148594 0.151309 -0.131494 -0.949891 0.628060 0.457186 -0.767576 0.351686 0.496488 -0.227231 0.351728 0.980655 -0.267375 0.045333 0.529140 0.352722 -0.835530 0.821733 0.887625 0.358364 -0.277078 -0.825923 1.034482 0.263859 0.444935 -0.872962 -0.462174 -0.061435 -0.289061 -0.249177 1.038370 -0.349679 0.331814 -0.247915 0.431174 -0.028537 0.563130 -0.255752 -0.252967 0.158210 0.506051 0.178867 0.710417 -0.871807 -0.038671 0.191693 0.579441 0.810459 -0.611504
our 0.653592 0.114831 0.496700 0.023477 -0.510449 -0.829993 -0.168067 -0.312057 0.374099 0.037463 -0.234784 -0.384147 1.081354 0.185682 1.032194 0.613367 -0.471907 0.337374 -0.021869 -0.621368 -1.202914 0.502639 0.798006 0.168753 0.685792 0.384124 -0.647555 0.641123 0.651596 -0.501402 -0.703496 -0.521750 -0.019045 -1.153731 0.062810 0.882576 0.206444 0.379462 -0.294591 0.598878 -0.160173 -0.449932 -0.071072 0.307258 1.027331 -0.197849 0.548863 -1.175359 -0.460965 0.551604 0.026967 -0.501937 -0.635735 0.656195 -0.358778 0.673084 -0.876306 -0.832597 -0.769685 -0.518245 -0.071314 0.140936 -1.255030 -0.583574 0.071597 -0.017827 -0.813815 -0.102703 0.207517 -0.881459 0.053397 -0.032012 -0.324029 0.341531 -1.252875 0.394797 -0.147015 -0.167317 0.706953 0.075912 0.175669 -0.414450 -0.942857 -0.316012 -0.326265 -0.307745 -0.605661 -0.745078 0.467000 -0.700524 0.018907 -0.242963 0.123943 -0.442566 0.421789 0.418111 -0.551953 0.339448 -1.016755 -0.076424
made 0.396818 -0.327746 0.009023 0.237696 0.079877 -0.058334 0.089942 -0.058054 0.189640 -0.159634 0.046488 0.096156 0.289982 0.096868 -0.610739 -0.093774 0.159495 -0.714914 0.166982 -0.895009 -0.415518 -0.255009 -0.519210 0.297088 -0.385367 0.857302 0.324480 0.363870 -0.239525 -0.076652 0.314179 -0.095896 0.272618 0.337534 0.093136 -0.142095 0.313726 0.365132 -0.338514 0.432838 0.450330 0.903044 -0.568802 -0.672222 -0.157138 0.112495 -0.809084 0.310829 -0.135997 -0.177502 0.167794 0.167607 0.233693 -0.630016 -0.126207 0.122437 -0.106533 0.013994 -0.207359 0.462968 0.102571 -0.749658 0.886813 -0.402708 -0.226166 0.133931 -0.209097 0.287842 -0.533587 0.297883 -0.300079 0.393167 -0.119066 0.902500 0.117661 0.257115 0.480052 0.698928 -0.425722 -0.585886 0.382785 0.346405 0.364643 -0.067786 0.199326 0.264782 -0.153094 0.086343 0.290818 0.062879 -0.274088 -0.008388 -0.865403 -0.578225 -0.199447 0.424996 0.471918 0.482958 0.127517 -0.195437
new 0.673735 0.037293 -0.531746 0.150614 -0.104360 0.214435 0.187951 -0.190455 0.254270 -0.003388 -0.055262 0.186676 0.441565 -0.138798 -0.055884 0.291502 -0.465388 -0.304827 -0.049209 -0.214896 -0.373962 0.247921 0.367936 0.627631 0.016212 0.118336 -0.222588 0.410129 -0.020403 -0.352315 0.081477 0.306762 0.355373 -0.419242 -0.098601 -0.133205 0.191619 0.617014 -0.466219 0.428052 0.173593 0.432054 0.290795 -0.219685 -0.170814 -0.323953 0.320285 -0.184535 -0.278752 0.037524 -0.097659 0.056643 -0.326063 0.615175 -0.465308 0.123887 -0.670071 -0.134620 -0.104462 -0.038166 -0.199214 -0.256849 -0.324147 -0.144359 -0.100358 -0.525348 0.094846 0.009337 0.250096 0.071674 0.096726 -0.168195 -0.067627 0.981004 -0.843464 0.592722 -0.120785 0.184686 -0.288960 -0.111438 -0.395669 -0.270660 -0.219037 -0.026386 -0.272728 0.162592 -0.805083 -0.272714 0.360298 -0.365337 -0.019675 0.236545 -0.130546 -0.434339 0.099149 0.246205 -0.625881 0.428400 -0.094033 0.349194
most 0.060606 -0.011174 -0.191337 0.313904 -0.884719 -0.850096 0.329013 0.305266 0.647972 0.040550 -0.240230 0.100336 -0.025838 -0.231121 -0.044182 0.969250 -0.180557 -0.253456 -0.627022 -0.544525 -0.730167 0.338747 -0.203834 0.656136 0.752725 0.127794 0.516652 0.373248 -0.079065 -1.028153 -0.046531 0.606530 0.759380 0.085140 0.176750 0.422056 -0.313508 -0.154856 0.013861 0.117934 0.060068 0.710754 -0.226683 -0.349083 0.686816 -0.311890 -0.927157 -0.393198 -0.381770 -0.444141 0.844677 0.129533 0.186499 -0.640698 0.029752 0.194702 -0.215242 -0.524354 0.421696 -0.084209 0.406201 0.302569 -0.231577 -0.786288 0.334027 -0.213733 0.031930 -0.264581 -0.590700 0.004518 0.710932 -0.068443 -0.053297 0.567298 -0.614238 0.112288 0.250105 0.224676 -0.011600 -0.361108 0.430841 0.210057 0.050639 -0.217075 -0.360588 -0.285274 -0.622058 0.093798 0.396015 0.063317 -0.213479 -0.053329 0.102409 0.107206 0.196855 -0.001054 -0.540042 0.500203 0.283369 0.192002
now 0.260972 0.158628 0.176279 0.056199 0.265722 -0.185154 0.234628 -0.437998 -0.534023 0.398758 0.281163 0.175803 -0.425548 0.387490 -0.088819 0.297748 0.059134 -0.731218 -0.188699 -0.467589 -0.528277 -0.584007 -0.042720 0.254530 0.071921 -0.094914 0.348694 0.465447 -0.102610 -0.275204 -0.098976 -0.287317 -0.309680 -0.035277 0.250533 0.069904 0.191887 -0.307507 -0.363301 0.261784 0.103159 0.309945 -0.050595 -0.541856 0.445294 0.400160 -0.841251 0.116799 -0.143142 0.130206 0.217607 -0.357661 0.030176 -0.042189 -0.182528 0.275228 -0.102215 -0.330157 -0.488155 0.145012 0.299611 0.006346 0.313156 -0.360312 0.098256 0.291850 -0.412146 0.033528 -0.245940 0.336315 -0.406679 0.244280 -0.593735 0.777671 0.153362 -0.139843 0.322101 0.287393 0.125241 -0.045876 0.382060 0.414917 -0.107049 -0.256766 -0.135487 0.060909 -0.051041 -0.267232 -0.089624 -0.285943 0.064148 -0.078478 0.006321 0.026491 0.108832 0.054578 -0.178115 0.063855 0.138924 -0.234683
then 0.300289 0.406936 -0.137508 0.080922 0.386436 -0.064171 0.408350 -0.172093 -0.067936 0.828100 0.310590 0.235839 -0.574128 0.234054 0.086239 0.259886 0.045789 -0.732131 0.486507 -0.303099 -0.864543 -0.135112 -0.037570 -0.607107 -0.498170 0.089382 0.152611 -0.101445 0.010684 0.318113 0.250198 -0.094410 -0.800001 0.395947 0.286841 0.081544 0.194854 0.347128 0.095070 -0.722166 0.068645 -0.306407 -0.337954 -0.403899 -0.205812 0.535002 -0.400908 0.241538 0.447625 0.671714 0.179466 -0.235480 0.099329 0.101958 0.062084 0.070319 0.077303 0.074058 -1.203105 0.019824 -0.059600 -0.120596 0.452545 -0.172618 0.441825 0.144306 -0.175176 0.087292 0.374951 0.192934 -1.156771 0.016011 -0.832644 0.006445 0.416214 -0.008360 -0.056663 -0.265499 0.344913 0.525350 0.208671 0.162987 0.654010 -0.424673 0.545651 0.117626 0.616258 -0.353171 -0.470817 -0.050873 0.051420 0.032675 -0.264370 0.234513 -0.162217 0.212671 0.620264 -0.521838 0.222796 0.006848
must -0.521167 -0.079170 0.627679 -0.476109 -0.407706 0.829350 -1.593011 0.658388 -0.507649 0.430911 0.151781 -1.678199 1.450380 -0.913302 0.093507 -0.494345 0.606264 -1.169961 -0.039402 0.311342 -0.184709 -0.842174 0.287312 0.308861 0.501923 0.957788 -0.242579 0.827313 -0.387534 -0.219743 -0.363253 -0.634052 0.429081 -0.805733 -0.625067 -0.017161 0.132002 -0.038256 -0.316767 1.052036 0.284514 -0.447030 -0.799852 -0.044477 1.266630 -0.775192 1.014489 0.382037 -0.201370 -1.219283 -0.248231 0.177504 -1.181593 -0.593470 -0.991365 -0.561137 -1.072522 0.664329 -0.803282 1.048939 0.306978 0.086154 -0.129853 0.305641 -0.239186 0.745355 -0.945560 0.678560 -0.834690 -0.742559 0.094530 -0.902691 0.215251 1.435299 -1.134517 -0.096231 0.618497 1.426889 0.302870 -1.853033 1.287277 0.143449 -0.052795 0.332250 -0.271435 0.917559 -0.855435 0.124523 -0.082544 -1.094884 -1.310007 -0.856775 -0.895075 -1.479531 -0.420154 0.015904 0.799856 -0.370301 -0.550426 -1.006808
also 0.601294 -0.104898 -0.166507 0.662454 -0.560213 -0.341668 -0.087828 -0.034778 -0.140804 -0.454656 -0.158409 0.763379 -0.221080 -0.047068 -0.446391 -0.382114 0.962258 -0.417406 0.045857 -0.694838 -0.288410 -0.005519 0.296852 0.000030 -0.312194 0.209705 0.203901 0.486121 -0.320305 0.090181 -0.385799 -0.427062 0.859842 0.221519 -0.079309 0.424666 0.202303 0.354423 -0.000437 0.024179 0.241420 0.954346 -0.299227 0.183093 0.205579 0.138810 -1.177299 0.040174 -1.110211 0.012191 -0.073221 0.059514 -0.208555 -0.227924 0.071649 0.241074 -0.777092 0.176327 -0.346684 -0.210313 -0.295289 -0.400048 0.107262 0.069319 -0.343637 0.512606 -0.215482 -0.072411 -0.469857 0.065049 -0.329829 0.111327 -0.626586 0.826194 -0.459100 0.055279 0.235642 -0.132140 0.745838 -0.383340 0.279193 0.365579 0.064387 -0.533140 -0.009202 -0.051766 -0.519929 -0.305974 0.075993 0.110044 -0.131448 0.455094 -0.777231 -0.894754 0.283814 0.285577 0.646356 0.611593 0.538499 0.062984
